<GAP_2023_11_18_60_19_13_46_790>
<Potential label="GAP_2023_11_18_60_19_13_46_790" init_args="IP GAP label=GAP_2023_11_18_60_19_13_46_790"/>
<GAP_params label="GAP_2023_11_18_60_19_13_46_790" gap_version="1683622154">
  <GAP_data do_core="F">
    <e0 Z="1" value=".00000000000000000E+000"/>
    <e0 Z="2" value=".00000000000000000E+000"/>
    <e0 Z="3" value=".00000000000000000E+000"/>
    <e0 Z="4" value=".00000000000000000E+000"/>
    <e0 Z="5" value=".00000000000000000E+000"/>
    <e0 Z="6" value=".00000000000000000E+000"/>
    <e0 Z="7" value=".00000000000000000E+000"/>
    <e0 Z="8" value=".00000000000000000E+000"/>
    <e0 Z="9" value=".00000000000000000E+000"/>
    <e0 Z="10" value=".00000000000000000E+000"/>
    <e0 Z="11" value=".00000000000000000E+000"/>
    <e0 Z="12" value=".00000000000000000E+000"/>
    <e0 Z="13" value=".00000000000000000E+000"/>
    <e0 Z="14" value=".00000000000000000E+000"/>
    <e0 Z="15" value=".00000000000000000E+000"/>
    <e0 Z="16" value=".00000000000000000E+000"/>
    <e0 Z="17" value=".00000000000000000E+000"/>
    <e0 Z="18" value=".00000000000000000E+000"/>
    <e0 Z="19" value=".00000000000000000E+000"/>
    <e0 Z="20" value=".00000000000000000E+000"/>
    <e0 Z="21" value=".00000000000000000E+000"/>
    <e0 Z="22" value=".00000000000000000E+000"/>
    <e0 Z="23" value=".00000000000000000E+000"/>
    <e0 Z="24" value=".00000000000000000E+000"/>
    <e0 Z="25" value=".00000000000000000E+000"/>
    <e0 Z="26" value=".00000000000000000E+000"/>
    <e0 Z="27" value=".00000000000000000E+000"/>
    <e0 Z="28" value=".00000000000000000E+000"/>
    <e0 Z="29" value=".00000000000000000E+000"/>
    <e0 Z="30" value=".00000000000000000E+000"/>
    <e0 Z="31" value=".00000000000000000E+000"/>
    <e0 Z="32" value=".00000000000000000E+000"/>
    <e0 Z="33" value="-166.85714639226236"/>
    <e0 Z="34" value=".00000000000000000E+000"/>
    <e0 Z="35" value=".00000000000000000E+000"/>
    <e0 Z="36" value=".00000000000000000E+000"/>
    <e0 Z="37" value=".00000000000000000E+000"/>
    <e0 Z="38" value=".00000000000000000E+000"/>
    <e0 Z="39" value=".00000000000000000E+000"/>
    <e0 Z="40" value=".00000000000000000E+000"/>
    <e0 Z="41" value=".00000000000000000E+000"/>
    <e0 Z="42" value=".00000000000000000E+000"/>
    <e0 Z="43" value=".00000000000000000E+000"/>
    <e0 Z="44" value=".00000000000000000E+000"/>
    <e0 Z="45" value=".00000000000000000E+000"/>
    <e0 Z="46" value=".00000000000000000E+000"/>
    <e0 Z="47" value=".00000000000000000E+000"/>
    <e0 Z="48" value=".00000000000000000E+000"/>
    <e0 Z="49" value=".00000000000000000E+000"/>
    <e0 Z="50" value=".00000000000000000E+000"/>
    <e0 Z="51" value=".00000000000000000E+000"/>
    <e0 Z="52" value="-218.37494654270498"/>
    <e0 Z="53" value=".00000000000000000E+000"/>
    <e0 Z="54" value=".00000000000000000E+000"/>
    <e0 Z="55" value=".00000000000000000E+000"/>
    <e0 Z="56" value=".00000000000000000E+000"/>
    <e0 Z="57" value=".00000000000000000E+000"/>
    <e0 Z="58" value=".00000000000000000E+000"/>
    <e0 Z="59" value=".00000000000000000E+000"/>
    <e0 Z="60" value=".00000000000000000E+000"/>
    <e0 Z="61" value=".00000000000000000E+000"/>
    <e0 Z="62" value=".00000000000000000E+000"/>
    <e0 Z="63" value=".00000000000000000E+000"/>
    <e0 Z="64" value=".00000000000000000E+000"/>
    <e0 Z="65" value=".00000000000000000E+000"/>
    <e0 Z="66" value=".00000000000000000E+000"/>
    <e0 Z="67" value=".00000000000000000E+000"/>
    <e0 Z="68" value=".00000000000000000E+000"/>
    <e0 Z="69" value=".00000000000000000E+000"/>
    <e0 Z="70" value=".00000000000000000E+000"/>
    <e0 Z="71" value=".00000000000000000E+000"/>
    <e0 Z="72" value=".00000000000000000E+000"/>
    <e0 Z="73" value=".00000000000000000E+000"/>
    <e0 Z="74" value=".00000000000000000E+000"/>
    <e0 Z="75" value=".00000000000000000E+000"/>
    <e0 Z="76" value=".00000000000000000E+000"/>
    <e0 Z="77" value=".00000000000000000E+000"/>
    <e0 Z="78" value=".00000000000000000E+000"/>
    <e0 Z="79" value=".00000000000000000E+000"/>
    <e0 Z="80" value=".00000000000000000E+000"/>
    <e0 Z="81" value=".00000000000000000E+000"/>
    <e0 Z="82" value=".00000000000000000E+000"/>
    <e0 Z="83" value=".00000000000000000E+000"/>
    <e0 Z="84" value=".00000000000000000E+000"/>
    <e0 Z="85" value=".00000000000000000E+000"/>
    <e0 Z="86" value=".00000000000000000E+000"/>
    <e0 Z="87" value=".00000000000000000E+000"/>
    <e0 Z="88" value=".00000000000000000E+000"/>
    <e0 Z="89" value=".00000000000000000E+000"/>
    <e0 Z="90" value=".00000000000000000E+000"/>
    <e0 Z="91" value=".00000000000000000E+000"/>
    <e0 Z="92" value=".00000000000000000E+000"/>
    <e0 Z="93" value=".00000000000000000E+000"/>
    <e0 Z="94" value=".00000000000000000E+000"/>
    <e0 Z="95" value=".00000000000000000E+000"/>
    <e0 Z="96" value=".00000000000000000E+000"/>
    <e0 Z="97" value=".00000000000000000E+000"/>
    <e0 Z="98" value=".00000000000000000E+000"/>
    <e0 Z="99" value=".00000000000000000E+000"/>
    <e0 Z="100" value=".00000000000000000E+000"/>
    <e0 Z="101" value=".00000000000000000E+000"/>
    <e0 Z="102" value=".00000000000000000E+000"/>
    <e0 Z="103" value=".00000000000000000E+000"/>
    <e0 Z="104" value=".00000000000000000E+000"/>
    <e0 Z="105" value=".00000000000000000E+000"/>
    <e0 Z="106" value=".00000000000000000E+000"/>
    <e0 Z="107" value=".00000000000000000E+000"/>
    <e0 Z="108" value=".00000000000000000E+000"/>
    <e0 Z="109" value=".00000000000000000E+000"/>
    <e0 Z="110" value=".00000000000000000E+000"/>
    <e0 Z="111" value=".00000000000000000E+000"/>
    <e0 Z="112" value=".00000000000000000E+000"/>
    <e0 Z="113" value=".00000000000000000E+000"/>
    <e0 Z="114" value=".00000000000000000E+000"/>
    <e0 Z="115" value=".00000000000000000E+000"/>
    <e0 Z="116" value=".00000000000000000E+000"/>
    <e0 Z="117" value=".00000000000000000E+000"/>
    <e0 Z="118" value=".00000000000000000E+000"/>
  </GAP_data>
  <gpSparse label="GAP_2023_11_18_60_19_13_46_790" n_coordinate="5" fitted="T">
    <gpCoordinates label="GAP_2023_11_18_60_19_13_46_7901" dimensions="1" signal_variance=".29000000000000004" signal_mean=".00000000000000000E+000" sparsified="T" n_permutations="2" covariance_type="1" n_sparseX="20" sparseX_filename="test.xml.sparseX.GAP_2023_11_18_60_19_13_46_7901" sparseX_md5sum="c9ee182b58903a98b1b3bd42e77a3ae1">
      <theta>  0.10000000000000000E+001 </theta>
      <descriptor>distance_Nb order=2 compact_clusters=T cutoff=4.91 cutoff_transition_width=1 n_sparse=20 covariance_type=ard_se delta=0.29000000000000004 theta_uniform=1.0 sparse_method=uniform               Z={33 33 }</descriptor>
      <permutation i="1">1  </permutation>
      <permutation i="2">1  </permutation>
      <sparseX i="1" alpha="-35903.376004008001" sparseCutoff=".63723223731059342"/>
      <sparseX i="2" alpha="43866.417312194382" sparseCutoff=".15513238640740773"/>
      <sparseX i="3" alpha="-14303.108612836682" sparseCutoff="1.0000000000000000"/>
      <sparseX i="4" alpha="-24084.716089820984" sparseCutoff=".80350367782434651"/>
      <sparseX i="5" alpha="-12010.779802257803" sparseCutoff="1.0000000000000000"/>
      <sparseX i="6" alpha="15899.430850933348" sparseCutoff="1.0000000000000000"/>
      <sparseX i="7" alpha="27005.884761237485" sparseCutoff=".95695506846089018"/>
      <sparseX i="8" alpha="26499.677482056151" sparseCutoff=".46045091816266381"/>
      <sparseX i="9" alpha="19051.048015344513" sparseCutoff="1.0000000000000000"/>
      <sparseX i="10" alpha="54871.570632319243" sparseCutoff="1.0000000000000000"/>
      <sparseX i="11" alpha="-18921.672690404823" sparseCutoff="1.0000000000000000"/>
      <sparseX i="12" alpha="-62450.980673893158" sparseCutoff="1.0000000000000000"/>
      <sparseX i="13" alpha="27091.122693188176" sparseCutoff=".98912178327506184"/>
      <sparseX i="14" alpha="-29573.209921958958" sparseCutoff=".40678600871461024E-002"/>
      <sparseX i="15" alpha="-72707.235328035647" sparseCutoff=".50181993044651263E-001"/>
      <sparseX i="16" alpha="16726.815884741733" sparseCutoff="1.0000000000000000"/>
      <sparseX i="17" alpha="-24017.224570247061" sparseCutoff="1.0000000000000000"/>
      <sparseX i="18" alpha="31507.535591132120" sparseCutoff="1.0000000000000000"/>
      <sparseX i="19" alpha="-21726.243361189488" sparseCutoff="1.0000000000000000"/>
      <sparseX i="20" alpha="-10241.869794794999" sparseCutoff="1.0000000000000000"/>
    </gpCoordinates>
    <gpCoordinates label="GAP_2023_11_18_60_19_13_46_7902" dimensions="1" signal_variance=".29000000000000004" signal_mean=".00000000000000000E+000" sparsified="T" n_permutations="1" covariance_type="1" n_sparseX="20" sparseX_filename="test.xml.sparseX.GAP_2023_11_18_60_19_13_46_7902" sparseX_md5sum="29988fbda9073c4034069d60973d362c">
      <theta>  0.10000000000000000E+001 </theta>
      <descriptor>distance_Nb order=2 compact_clusters=T cutoff=4.91 cutoff_transition_width=1 n_sparse=20 covariance_type=ard_se delta=0.29000000000000004 theta_uniform=1.0 sparse_method=uniform               Z={33 52 }</descriptor>
      <permutation i="1">1  </permutation>
      <sparseX i="1" alpha="70272.456179046290" sparseCutoff="1.0000000000000000"/>
      <sparseX i="2" alpha="90907.174602062980" sparseCutoff="1.0000000000000000"/>
      <sparseX i="3" alpha="101550.64960742526" sparseCutoff=".99803425107372123"/>
      <sparseX i="4" alpha="413.53293735220188" sparseCutoff=".13528865646999039"/>
      <sparseX i="5" alpha="-125087.26860962081" sparseCutoff=".67644652083353829"/>
      <sparseX i="6" alpha="-10309.452554717673" sparseCutoff="1.0000000000000000"/>
      <sparseX i="7" alpha="-74059.803512157509" sparseCutoff=".58497686777288582"/>
      <sparseX i="8" alpha="-83039.011150617633" sparseCutoff="1.0000000000000000"/>
      <sparseX i="9" alpha="-95626.952101144430" sparseCutoff="1.0000000000000000"/>
      <sparseX i="10" alpha="-82229.726140724044" sparseCutoff="1.0000000000000000"/>
      <sparseX i="11" alpha="167295.05909966191" sparseCutoff=".37713795547109630"/>
      <sparseX i="12" alpha="54972.930631977455" sparseCutoff="1.0000000000000000"/>
      <sparseX i="13" alpha="55727.166329572152" sparseCutoff="1.0000000000000000"/>
      <sparseX i="14" alpha="-70413.752797579058" sparseCutoff=".37737754428594505E-002"/>
      <sparseX i="15" alpha="-212996.97624026556" sparseCutoff=".22863670807415082E-001"/>
      <sparseX i="16" alpha="67980.771158020943" sparseCutoff=".91349771164393356"/>
      <sparseX i="17" alpha="-22366.832506589715" sparseCutoff="1.0000000000000000"/>
      <sparseX i="18" alpha="-147469.36955878537" sparseCutoff="1.0000000000000000"/>
      <sparseX i="19" alpha="-1919.6391112318772" sparseCutoff="1.0000000000000000"/>
      <sparseX i="20" alpha="77601.185712240011" sparseCutoff="1.0000000000000000"/>
    </gpCoordinates>
    <gpCoordinates label="GAP_2023_11_18_60_19_13_46_7903" dimensions="1" signal_variance=".29000000000000004" signal_mean=".00000000000000000E+000" sparsified="T" n_permutations="2" covariance_type="1" n_sparseX="20" sparseX_filename="test.xml.sparseX.GAP_2023_11_18_60_19_13_46_7903" sparseX_md5sum="9fde28eb504d2a457b060175bf1feebb">
      <theta>  0.10000000000000000E+001 </theta>
      <descriptor>distance_Nb order=2 compact_clusters=T cutoff=4.91 cutoff_transition_width=1 n_sparse=20 covariance_type=ard_se delta=0.29000000000000004 theta_uniform=1.0 sparse_method=uniform               Z={52 52 }</descriptor>
      <permutation i="1">1  </permutation>
      <permutation i="2">1  </permutation>
      <sparseX i="1" alpha="147672.09054285585" sparseCutoff=".97422586390918309"/>
      <sparseX i="2" alpha="127923.35782525426" sparseCutoff=".89667585910918979"/>
      <sparseX i="3" alpha="-127613.81858000995" sparseCutoff=".75033368700309055"/>
      <sparseX i="4" alpha="173575.54330330726" sparseCutoff=".15939785550251245"/>
      <sparseX i="5" alpha="207381.23962309136" sparseCutoff=".36576598261515758"/>
      <sparseX i="6" alpha="-55474.592994184655" sparseCutoff="1.0000000000000000"/>
      <sparseX i="7" alpha="73324.159252403944" sparseCutoff="1.0000000000000000"/>
      <sparseX i="8" alpha="81740.035510603688" sparseCutoff="1.0000000000000000"/>
      <sparseX i="9" alpha="58752.865790899705" sparseCutoff="1.0000000000000000"/>
      <sparseX i="10" alpha="92210.026588328983" sparseCutoff="1.0000000000000000"/>
      <sparseX i="11" alpha="-328423.23969860678" sparseCutoff=".73778269711681499E-001"/>
      <sparseX i="12" alpha="-6001.9642003223616" sparseCutoff="1.0000000000000000"/>
      <sparseX i="13" alpha="-111060.27824870951" sparseCutoff="1.0000000000000000"/>
      <sparseX i="14" alpha="-19011.749689539061" sparseCutoff=".29726453418826848E-003"/>
      <sparseX i="15" alpha="-120891.37155976100" sparseCutoff="1.0000000000000000"/>
      <sparseX i="16" alpha="-72713.740091086496" sparseCutoff="1.0000000000000000"/>
      <sparseX i="17" alpha="7240.1515911484539" sparseCutoff="1.0000000000000000"/>
      <sparseX i="18" alpha="-199431.80230048214" sparseCutoff=".57558649651073535"/>
      <sparseX i="19" alpha="-122383.39124051129" sparseCutoff="1.0000000000000000"/>
      <sparseX i="20" alpha="47983.071252882393" sparseCutoff="1.0000000000000000"/>
    </gpCoordinates>
    <gpCoordinates label="GAP_2023_11_18_60_19_13_46_7904" dimensions="469" signal_variance=".28999999999999998" signal_mean=".00000000000000000E+000" sparsified="T" n_permutations="1" covariance_type="2" zeta="4.0000000000000000" n_sparseX="1801" sparseX_filename="test.xml.sparseX.GAP_2023_11_18_60_19_13_46_7904" sparseX_md5sum="3edddc85d247dcd6b2779e241cdd090e">
      <descriptor>soap l_max=5 n_max=6 cutoff=4.91 cutoff_transition_width=1.0 delta=0.29 atom_sigma=0.4 zeta=4               config_type_n_sparse=same:1800:Tellure:1:Arsenic:1 sparse_method=cur_points covariance_type=dot_product n_species=2 Z=33 species_Z={33 52 }</descriptor>
      <permutation i="1">1  </permutation>
      <sparseX i="1" alpha="-507.92706900928061" sparseCutoff="1.0000000000000000"/>
      <sparseX i="2" alpha="-451.32510831895064" sparseCutoff="1.0000000000000000"/>
      <sparseX i="3" alpha="-484.59925723016795" sparseCutoff="1.0000000000000000"/>
      <sparseX i="4" alpha="1624.4997020565775" sparseCutoff="1.0000000000000000"/>
      <sparseX i="5" alpha="-101.38574023568961" sparseCutoff="1.0000000000000000"/>
      <sparseX i="6" alpha="750.34617155323781" sparseCutoff="1.0000000000000000"/>
      <sparseX i="7" alpha="282.18474448593611" sparseCutoff="1.0000000000000000"/>
      <sparseX i="8" alpha="836.36444439552508" sparseCutoff="1.0000000000000000"/>
      <sparseX i="9" alpha="1163.0631923505132" sparseCutoff="1.0000000000000000"/>
      <sparseX i="10" alpha="-69.597894600036014" sparseCutoff="1.0000000000000000"/>
      <sparseX i="11" alpha="-137.16767376026479" sparseCutoff="1.0000000000000000"/>
      <sparseX i="12" alpha="566.77161830914974" sparseCutoff="1.0000000000000000"/>
      <sparseX i="13" alpha="2397.6238259191318" sparseCutoff="1.0000000000000000"/>
      <sparseX i="14" alpha="-1659.7892378397949" sparseCutoff="1.0000000000000000"/>
      <sparseX i="15" alpha="227.71419768191555" sparseCutoff="1.0000000000000000"/>
      <sparseX i="16" alpha="-1448.6959856482481" sparseCutoff="1.0000000000000000"/>
      <sparseX i="17" alpha="-719.30549297918253" sparseCutoff="1.0000000000000000"/>
      <sparseX i="18" alpha="1370.6863259399192" sparseCutoff="1.0000000000000000"/>
      <sparseX i="19" alpha="1846.9696007645575" sparseCutoff="1.0000000000000000"/>
      <sparseX i="20" alpha="-174.33393402989091" sparseCutoff="1.0000000000000000"/>
      <sparseX i="21" alpha="423.62513331440556" sparseCutoff="1.0000000000000000"/>
      <sparseX i="22" alpha="1125.9251847005173" sparseCutoff="1.0000000000000000"/>
      <sparseX i="23" alpha="-1053.8996984710811" sparseCutoff="1.0000000000000000"/>
      <sparseX i="24" alpha="275.10817532651015" sparseCutoff="1.0000000000000000"/>
      <sparseX i="25" alpha="192.23082532529736" sparseCutoff="1.0000000000000000"/>
      <sparseX i="26" alpha="522.29026056855071" sparseCutoff="1.0000000000000000"/>
      <sparseX i="27" alpha="-1460.4738578003160" sparseCutoff="1.0000000000000000"/>
      <sparseX i="28" alpha="201.26625205950867" sparseCutoff="1.0000000000000000"/>
      <sparseX i="29" alpha="1781.1809439417009" sparseCutoff="1.0000000000000000"/>
      <sparseX i="30" alpha="32.716869721486070" sparseCutoff="1.0000000000000000"/>
      <sparseX i="31" alpha="-983.65370363304373" sparseCutoff="1.0000000000000000"/>
      <sparseX i="32" alpha="164.71485063179577" sparseCutoff="1.0000000000000000"/>
      <sparseX i="33" alpha="1080.1490427463611" sparseCutoff="1.0000000000000000"/>
      <sparseX i="34" alpha="291.23205629972938" sparseCutoff="1.0000000000000000"/>
      <sparseX i="35" alpha="499.66266022351670" sparseCutoff="1.0000000000000000"/>
      <sparseX i="36" alpha="-146.36580553535867" sparseCutoff="1.0000000000000000"/>
      <sparseX i="37" alpha="1187.7377394155990" sparseCutoff="1.0000000000000000"/>
      <sparseX i="38" alpha="-1264.9720623740459" sparseCutoff="1.0000000000000000"/>
      <sparseX i="39" alpha="813.49853751281557" sparseCutoff="1.0000000000000000"/>
      <sparseX i="40" alpha="469.20277298536911" sparseCutoff="1.0000000000000000"/>
      <sparseX i="41" alpha="167.92728796260056" sparseCutoff="1.0000000000000000"/>
      <sparseX i="42" alpha="739.91541501770189" sparseCutoff="1.0000000000000000"/>
      <sparseX i="43" alpha="768.04190352255955" sparseCutoff="1.0000000000000000"/>
      <sparseX i="44" alpha="-102.06964012943614" sparseCutoff="1.0000000000000000"/>
      <sparseX i="45" alpha="459.10235394647390" sparseCutoff="1.0000000000000000"/>
      <sparseX i="46" alpha="-1115.5704823568797" sparseCutoff="1.0000000000000000"/>
      <sparseX i="47" alpha="1144.5403353410375" sparseCutoff="1.0000000000000000"/>
      <sparseX i="48" alpha="-1461.5938633096719" sparseCutoff="1.0000000000000000"/>
      <sparseX i="49" alpha="-955.09798715308011" sparseCutoff="1.0000000000000000"/>
      <sparseX i="50" alpha="786.14115752668670" sparseCutoff="1.0000000000000000"/>
      <sparseX i="51" alpha="823.29098605773959" sparseCutoff="1.0000000000000000"/>
      <sparseX i="52" alpha="-474.81672796465335" sparseCutoff="1.0000000000000000"/>
      <sparseX i="53" alpha="-208.72189531695821" sparseCutoff="1.0000000000000000"/>
      <sparseX i="54" alpha="-667.36006867361425" sparseCutoff="1.0000000000000000"/>
      <sparseX i="55" alpha="-245.25990893358204" sparseCutoff="1.0000000000000000"/>
      <sparseX i="56" alpha="1009.7281309538771" sparseCutoff="1.0000000000000000"/>
      <sparseX i="57" alpha="1033.2072203154778" sparseCutoff="1.0000000000000000"/>
      <sparseX i="58" alpha="-76.058399469431222" sparseCutoff="1.0000000000000000"/>
      <sparseX i="59" alpha="-1055.4571435540161" sparseCutoff="1.0000000000000000"/>
      <sparseX i="60" alpha="722.28732103075981" sparseCutoff="1.0000000000000000"/>
      <sparseX i="61" alpha="81.122063690833215" sparseCutoff="1.0000000000000000"/>
      <sparseX i="62" alpha="188.73398559462856" sparseCutoff="1.0000000000000000"/>
      <sparseX i="63" alpha="-514.78907114169851" sparseCutoff="1.0000000000000000"/>
      <sparseX i="64" alpha="-223.95106532241610" sparseCutoff="1.0000000000000000"/>
      <sparseX i="65" alpha="360.00678902819919" sparseCutoff="1.0000000000000000"/>
      <sparseX i="66" alpha="43.609028793356018" sparseCutoff="1.0000000000000000"/>
      <sparseX i="67" alpha="18.380550156944555" sparseCutoff="1.0000000000000000"/>
      <sparseX i="68" alpha="-389.65719971002835" sparseCutoff="1.0000000000000000"/>
      <sparseX i="69" alpha="-252.85553139761566" sparseCutoff="1.0000000000000000"/>
      <sparseX i="70" alpha="3431.7429163684687" sparseCutoff="1.0000000000000000"/>
      <sparseX i="71" alpha="620.37426341233891" sparseCutoff="1.0000000000000000"/>
      <sparseX i="72" alpha="-78.058422589941372" sparseCutoff="1.0000000000000000"/>
      <sparseX i="73" alpha="-546.21483425102190" sparseCutoff="1.0000000000000000"/>
      <sparseX i="74" alpha="-445.57379366084109" sparseCutoff="1.0000000000000000"/>
      <sparseX i="75" alpha="-1588.2173293151691" sparseCutoff="1.0000000000000000"/>
      <sparseX i="76" alpha="-2027.5710263760479" sparseCutoff="1.0000000000000000"/>
      <sparseX i="77" alpha="-772.67629655732424" sparseCutoff="1.0000000000000000"/>
      <sparseX i="78" alpha="215.59724259607924" sparseCutoff="1.0000000000000000"/>
      <sparseX i="79" alpha="-227.97872360411847" sparseCutoff="1.0000000000000000"/>
      <sparseX i="80" alpha="-650.63944742418835" sparseCutoff="1.0000000000000000"/>
      <sparseX i="81" alpha="949.51594193447818" sparseCutoff="1.0000000000000000"/>
      <sparseX i="82" alpha="665.97156222087278" sparseCutoff="1.0000000000000000"/>
      <sparseX i="83" alpha="84.913262411169740" sparseCutoff="1.0000000000000000"/>
      <sparseX i="84" alpha="-342.01005013043050" sparseCutoff="1.0000000000000000"/>
      <sparseX i="85" alpha="1439.2697203293158" sparseCutoff="1.0000000000000000"/>
      <sparseX i="86" alpha="-275.49070240138315" sparseCutoff="1.0000000000000000"/>
      <sparseX i="87" alpha="-134.55541458027437" sparseCutoff="1.0000000000000000"/>
      <sparseX i="88" alpha="-684.37911512085998" sparseCutoff="1.0000000000000000"/>
      <sparseX i="89" alpha="-933.16554741202674" sparseCutoff="1.0000000000000000"/>
      <sparseX i="90" alpha="961.95448522566164" sparseCutoff="1.0000000000000000"/>
      <sparseX i="91" alpha="-54.876889775866225" sparseCutoff="1.0000000000000000"/>
      <sparseX i="92" alpha="536.24940616886011" sparseCutoff="1.0000000000000000"/>
      <sparseX i="93" alpha="100.35906427449113" sparseCutoff="1.0000000000000000"/>
      <sparseX i="94" alpha="301.36274608755099" sparseCutoff="1.0000000000000000"/>
      <sparseX i="95" alpha="-1362.2191115116952" sparseCutoff="1.0000000000000000"/>
      <sparseX i="96" alpha="735.06318321808612" sparseCutoff="1.0000000000000000"/>
      <sparseX i="97" alpha="262.34218261464162" sparseCutoff="1.0000000000000000"/>
      <sparseX i="98" alpha="410.79628789206060" sparseCutoff="1.0000000000000000"/>
      <sparseX i="99" alpha="3821.0160361341004" sparseCutoff="1.0000000000000000"/>
      <sparseX i="100" alpha="210.21622969348888" sparseCutoff="1.0000000000000000"/>
      <sparseX i="101" alpha="-609.01025635957330" sparseCutoff="1.0000000000000000"/>
      <sparseX i="102" alpha="-1492.3395534755782" sparseCutoff="1.0000000000000000"/>
      <sparseX i="103" alpha="1494.9678833312155" sparseCutoff="1.0000000000000000"/>
      <sparseX i="104" alpha="-828.44945056217432" sparseCutoff="1.0000000000000000"/>
      <sparseX i="105" alpha="24.540171423050342" sparseCutoff="1.0000000000000000"/>
      <sparseX i="106" alpha="-639.77097496097826" sparseCutoff="1.0000000000000000"/>
      <sparseX i="107" alpha="138.78648351697004" sparseCutoff="1.0000000000000000"/>
      <sparseX i="108" alpha="110.13384178624042" sparseCutoff="1.0000000000000000"/>
      <sparseX i="109" alpha="-421.88730451184341" sparseCutoff="1.0000000000000000"/>
      <sparseX i="110" alpha="106.49694785184475" sparseCutoff="1.0000000000000000"/>
      <sparseX i="111" alpha="388.14624756415975" sparseCutoff="1.0000000000000000"/>
      <sparseX i="112" alpha="615.00083367944160" sparseCutoff="1.0000000000000000"/>
      <sparseX i="113" alpha="1345.9189269081730" sparseCutoff="1.0000000000000000"/>
      <sparseX i="114" alpha="1615.6682814116252" sparseCutoff="1.0000000000000000"/>
      <sparseX i="115" alpha="260.90088886328618" sparseCutoff="1.0000000000000000"/>
      <sparseX i="116" alpha="-2411.8208512858882" sparseCutoff="1.0000000000000000"/>
      <sparseX i="117" alpha="-632.14616432018545" sparseCutoff="1.0000000000000000"/>
      <sparseX i="118" alpha="-50.169191610237846" sparseCutoff="1.0000000000000000"/>
      <sparseX i="119" alpha="307.69297673933539" sparseCutoff="1.0000000000000000"/>
      <sparseX i="120" alpha="-2485.3261126239722" sparseCutoff="1.0000000000000000"/>
      <sparseX i="121" alpha="300.69439447492528" sparseCutoff="1.0000000000000000"/>
      <sparseX i="122" alpha="523.39745580287649" sparseCutoff="1.0000000000000000"/>
      <sparseX i="123" alpha="-2688.6931823625218" sparseCutoff="1.0000000000000000"/>
      <sparseX i="124" alpha="557.19030451451590" sparseCutoff="1.0000000000000000"/>
      <sparseX i="125" alpha="184.06121450957605" sparseCutoff="1.0000000000000000"/>
      <sparseX i="126" alpha="-684.35076325822877" sparseCutoff="1.0000000000000000"/>
      <sparseX i="127" alpha="558.97869874550190" sparseCutoff="1.0000000000000000"/>
      <sparseX i="128" alpha="-309.43502459790693" sparseCutoff="1.0000000000000000"/>
      <sparseX i="129" alpha="707.24041274104593" sparseCutoff="1.0000000000000000"/>
      <sparseX i="130" alpha="-1244.9914485548716" sparseCutoff="1.0000000000000000"/>
      <sparseX i="131" alpha="843.06460035629595" sparseCutoff="1.0000000000000000"/>
      <sparseX i="132" alpha="-262.78543101225841" sparseCutoff="1.0000000000000000"/>
      <sparseX i="133" alpha="337.71425514351347" sparseCutoff="1.0000000000000000"/>
      <sparseX i="134" alpha="-600.10165634761358" sparseCutoff="1.0000000000000000"/>
      <sparseX i="135" alpha="-577.53528882678700" sparseCutoff="1.0000000000000000"/>
      <sparseX i="136" alpha="-378.19465041447120" sparseCutoff="1.0000000000000000"/>
      <sparseX i="137" alpha="190.10743599103398" sparseCutoff="1.0000000000000000"/>
      <sparseX i="138" alpha="-714.75553418131233" sparseCutoff="1.0000000000000000"/>
      <sparseX i="139" alpha="336.58074427596517" sparseCutoff="1.0000000000000000"/>
      <sparseX i="140" alpha="108.33603455695167" sparseCutoff="1.0000000000000000"/>
      <sparseX i="141" alpha="2800.8241347516637" sparseCutoff="1.0000000000000000"/>
      <sparseX i="142" alpha="-325.02707264038924" sparseCutoff="1.0000000000000000"/>
      <sparseX i="143" alpha="1641.8722909948285" sparseCutoff="1.0000000000000000"/>
      <sparseX i="144" alpha="-955.33149746129482" sparseCutoff="1.0000000000000000"/>
      <sparseX i="145" alpha="-545.06294986585215" sparseCutoff="1.0000000000000000"/>
      <sparseX i="146" alpha="-2866.1161224286443" sparseCutoff="1.0000000000000000"/>
      <sparseX i="147" alpha="163.55244411567872" sparseCutoff="1.0000000000000000"/>
      <sparseX i="148" alpha="-823.04609336489909" sparseCutoff="1.0000000000000000"/>
      <sparseX i="149" alpha="-1351.5921216505171" sparseCutoff="1.0000000000000000"/>
      <sparseX i="150" alpha="1617.8058539052372" sparseCutoff="1.0000000000000000"/>
      <sparseX i="151" alpha="-685.20346306064471" sparseCutoff="1.0000000000000000"/>
      <sparseX i="152" alpha="-2544.8077537382660" sparseCutoff="1.0000000000000000"/>
      <sparseX i="153" alpha="-414.91422641053327" sparseCutoff="1.0000000000000000"/>
      <sparseX i="154" alpha="367.20687349673221" sparseCutoff="1.0000000000000000"/>
      <sparseX i="155" alpha="50.767239109273994" sparseCutoff="1.0000000000000000"/>
      <sparseX i="156" alpha="-124.16020073056119" sparseCutoff="1.0000000000000000"/>
      <sparseX i="157" alpha="-298.22915578668903" sparseCutoff="1.0000000000000000"/>
      <sparseX i="158" alpha="347.37140011425078" sparseCutoff="1.0000000000000000"/>
      <sparseX i="159" alpha="-307.87964494770802" sparseCutoff="1.0000000000000000"/>
      <sparseX i="160" alpha="-211.04167017245598" sparseCutoff="1.0000000000000000"/>
      <sparseX i="161" alpha="-512.19989733977252" sparseCutoff="1.0000000000000000"/>
      <sparseX i="162" alpha="-443.03800628479735" sparseCutoff="1.0000000000000000"/>
      <sparseX i="163" alpha="-293.50781807217476" sparseCutoff="1.0000000000000000"/>
      <sparseX i="164" alpha="407.02067417953930" sparseCutoff="1.0000000000000000"/>
      <sparseX i="165" alpha="-1248.3011169332538" sparseCutoff="1.0000000000000000"/>
      <sparseX i="166" alpha="1090.9774753368840" sparseCutoff="1.0000000000000000"/>
      <sparseX i="167" alpha="575.00505889042859" sparseCutoff="1.0000000000000000"/>
      <sparseX i="168" alpha="519.41704084338664" sparseCutoff="1.0000000000000000"/>
      <sparseX i="169" alpha="740.66307997089825" sparseCutoff="1.0000000000000000"/>
      <sparseX i="170" alpha="-600.36439364972864" sparseCutoff="1.0000000000000000"/>
      <sparseX i="171" alpha="1550.5507149998527" sparseCutoff="1.0000000000000000"/>
      <sparseX i="172" alpha="1731.5566539487611" sparseCutoff="1.0000000000000000"/>
      <sparseX i="173" alpha="-312.83129706971800" sparseCutoff="1.0000000000000000"/>
      <sparseX i="174" alpha="1212.4273407999228" sparseCutoff="1.0000000000000000"/>
      <sparseX i="175" alpha="130.73594875763430" sparseCutoff="1.0000000000000000"/>
      <sparseX i="176" alpha="-302.18951697095190" sparseCutoff="1.0000000000000000"/>
      <sparseX i="177" alpha="686.72227890930230" sparseCutoff="1.0000000000000000"/>
      <sparseX i="178" alpha="804.72210231305246" sparseCutoff="1.0000000000000000"/>
      <sparseX i="179" alpha="672.93008343341160" sparseCutoff="1.0000000000000000"/>
      <sparseX i="180" alpha="-1757.7987335209687" sparseCutoff="1.0000000000000000"/>
      <sparseX i="181" alpha="-553.42158027499886" sparseCutoff="1.0000000000000000"/>
      <sparseX i="182" alpha="1666.2977652923369" sparseCutoff="1.0000000000000000"/>
      <sparseX i="183" alpha="-141.90867835812622" sparseCutoff="1.0000000000000000"/>
      <sparseX i="184" alpha="248.47977647450142" sparseCutoff="1.0000000000000000"/>
      <sparseX i="185" alpha="-380.02390499826225" sparseCutoff="1.0000000000000000"/>
      <sparseX i="186" alpha="1348.8238936855250" sparseCutoff="1.0000000000000000"/>
      <sparseX i="187" alpha="1069.4208333008050" sparseCutoff="1.0000000000000000"/>
      <sparseX i="188" alpha="438.58114748953892" sparseCutoff="1.0000000000000000"/>
      <sparseX i="189" alpha="-542.23928750223752" sparseCutoff="1.0000000000000000"/>
      <sparseX i="190" alpha="-1429.9583864328579" sparseCutoff="1.0000000000000000"/>
      <sparseX i="191" alpha="-1292.2918515307872" sparseCutoff="1.0000000000000000"/>
      <sparseX i="192" alpha="-164.09039739702655" sparseCutoff="1.0000000000000000"/>
      <sparseX i="193" alpha="416.17693863426609" sparseCutoff="1.0000000000000000"/>
      <sparseX i="194" alpha="103.57501993855101" sparseCutoff="1.0000000000000000"/>
      <sparseX i="195" alpha="-1818.6370338710333" sparseCutoff="1.0000000000000000"/>
      <sparseX i="196" alpha="-585.61603797706357" sparseCutoff="1.0000000000000000"/>
      <sparseX i="197" alpha="-214.67542573916913" sparseCutoff="1.0000000000000000"/>
      <sparseX i="198" alpha="-304.15563164518051" sparseCutoff="1.0000000000000000"/>
      <sparseX i="199" alpha="-2052.8116854360405" sparseCutoff="1.0000000000000000"/>
      <sparseX i="200" alpha="-187.78555653649400" sparseCutoff="1.0000000000000000"/>
      <sparseX i="201" alpha="-302.55568470141060" sparseCutoff="1.0000000000000000"/>
      <sparseX i="202" alpha="-888.23367707675834" sparseCutoff="1.0000000000000000"/>
      <sparseX i="203" alpha="442.24534995047674" sparseCutoff="1.0000000000000000"/>
      <sparseX i="204" alpha="-504.92885722558123" sparseCutoff="1.0000000000000000"/>
      <sparseX i="205" alpha="160.22530363068168" sparseCutoff="1.0000000000000000"/>
      <sparseX i="206" alpha="-593.91308691431846" sparseCutoff="1.0000000000000000"/>
      <sparseX i="207" alpha="14.859815532083198" sparseCutoff="1.0000000000000000"/>
      <sparseX i="208" alpha="-337.57440026874599" sparseCutoff="1.0000000000000000"/>
      <sparseX i="209" alpha="-540.45548648147781" sparseCutoff="1.0000000000000000"/>
      <sparseX i="210" alpha="-532.85573366514836" sparseCutoff="1.0000000000000000"/>
      <sparseX i="211" alpha="-564.76410073697491" sparseCutoff="1.0000000000000000"/>
      <sparseX i="212" alpha="225.60311863616727" sparseCutoff="1.0000000000000000"/>
      <sparseX i="213" alpha="100.56985453776538" sparseCutoff="1.0000000000000000"/>
      <sparseX i="214" alpha="-171.94953055555965" sparseCutoff="1.0000000000000000"/>
      <sparseX i="215" alpha="975.25804875983658" sparseCutoff="1.0000000000000000"/>
      <sparseX i="216" alpha="-1725.3143024217231" sparseCutoff="1.0000000000000000"/>
      <sparseX i="217" alpha="-689.51369888932527" sparseCutoff="1.0000000000000000"/>
      <sparseX i="218" alpha="132.40434320108082" sparseCutoff="1.0000000000000000"/>
      <sparseX i="219" alpha="384.35021044323969" sparseCutoff="1.0000000000000000"/>
      <sparseX i="220" alpha="89.458080920297462" sparseCutoff="1.0000000000000000"/>
      <sparseX i="221" alpha="-3204.9438485913120" sparseCutoff="1.0000000000000000"/>
      <sparseX i="222" alpha="132.08680285695965" sparseCutoff="1.0000000000000000"/>
      <sparseX i="223" alpha="740.25806357625959" sparseCutoff="1.0000000000000000"/>
      <sparseX i="224" alpha="-3121.9024134541141" sparseCutoff="1.0000000000000000"/>
      <sparseX i="225" alpha="2165.2056119520225" sparseCutoff="1.0000000000000000"/>
      <sparseX i="226" alpha="239.36738909046994" sparseCutoff="1.0000000000000000"/>
      <sparseX i="227" alpha="-627.15107310051349" sparseCutoff="1.0000000000000000"/>
      <sparseX i="228" alpha="822.78735981164823" sparseCutoff="1.0000000000000000"/>
      <sparseX i="229" alpha="-325.98622098638333" sparseCutoff="1.0000000000000000"/>
      <sparseX i="230" alpha="120.57109411182049" sparseCutoff="1.0000000000000000"/>
      <sparseX i="231" alpha="698.05575627387748" sparseCutoff="1.0000000000000000"/>
      <sparseX i="232" alpha="473.28636411327147" sparseCutoff="1.0000000000000000"/>
      <sparseX i="233" alpha="122.01560514955756" sparseCutoff="1.0000000000000000"/>
      <sparseX i="234" alpha="-450.92002005487785" sparseCutoff="1.0000000000000000"/>
      <sparseX i="235" alpha="2339.2940395498899" sparseCutoff="1.0000000000000000"/>
      <sparseX i="236" alpha="275.34200553210644" sparseCutoff="1.0000000000000000"/>
      <sparseX i="237" alpha="77.275270694002003" sparseCutoff="1.0000000000000000"/>
      <sparseX i="238" alpha="242.59619372301310" sparseCutoff="1.0000000000000000"/>
      <sparseX i="239" alpha="813.09458721641568" sparseCutoff="1.0000000000000000"/>
      <sparseX i="240" alpha="17.119569171647267" sparseCutoff="1.0000000000000000"/>
      <sparseX i="241" alpha="304.80510500675473" sparseCutoff="1.0000000000000000"/>
      <sparseX i="242" alpha="700.77439982949977" sparseCutoff="1.0000000000000000"/>
      <sparseX i="243" alpha="-160.99943035186621" sparseCutoff="1.0000000000000000"/>
      <sparseX i="244" alpha="1803.5846029620609" sparseCutoff="1.0000000000000000"/>
      <sparseX i="245" alpha="676.16897800670131" sparseCutoff="1.0000000000000000"/>
      <sparseX i="246" alpha="1105.2431929287122" sparseCutoff="1.0000000000000000"/>
      <sparseX i="247" alpha="1760.7620264002226" sparseCutoff="1.0000000000000000"/>
      <sparseX i="248" alpha="-324.94356058731069" sparseCutoff="1.0000000000000000"/>
      <sparseX i="249" alpha="-1039.0916793950519" sparseCutoff="1.0000000000000000"/>
      <sparseX i="250" alpha="194.40906292107161" sparseCutoff="1.0000000000000000"/>
      <sparseX i="251" alpha="746.71946167513011" sparseCutoff="1.0000000000000000"/>
      <sparseX i="252" alpha="-5401.0184393200207" sparseCutoff="1.0000000000000000"/>
      <sparseX i="253" alpha="816.46012789454903" sparseCutoff="1.0000000000000000"/>
      <sparseX i="254" alpha="187.56453373538162" sparseCutoff="1.0000000000000000"/>
      <sparseX i="255" alpha="2133.1762061008908" sparseCutoff="1.0000000000000000"/>
      <sparseX i="256" alpha="582.50044147281335" sparseCutoff="1.0000000000000000"/>
      <sparseX i="257" alpha="1017.8860399038301" sparseCutoff="1.0000000000000000"/>
      <sparseX i="258" alpha="959.62924361160003" sparseCutoff="1.0000000000000000"/>
      <sparseX i="259" alpha="-652.52131339301468" sparseCutoff="1.0000000000000000"/>
      <sparseX i="260" alpha="-1028.4174481189566" sparseCutoff="1.0000000000000000"/>
      <sparseX i="261" alpha="-3082.9343213526658" sparseCutoff="1.0000000000000000"/>
      <sparseX i="262" alpha="-953.20057053190556" sparseCutoff="1.0000000000000000"/>
      <sparseX i="263" alpha="-288.74353771598766" sparseCutoff="1.0000000000000000"/>
      <sparseX i="264" alpha="-1748.4575528103394" sparseCutoff="1.0000000000000000"/>
      <sparseX i="265" alpha="369.99816549376811" sparseCutoff="1.0000000000000000"/>
      <sparseX i="266" alpha="-375.03436421427131" sparseCutoff="1.0000000000000000"/>
      <sparseX i="267" alpha="-941.36350506936219" sparseCutoff="1.0000000000000000"/>
      <sparseX i="268" alpha="664.61804112226991" sparseCutoff="1.0000000000000000"/>
      <sparseX i="269" alpha="15.076509313216107" sparseCutoff="1.0000000000000000"/>
      <sparseX i="270" alpha="-344.33933567817661" sparseCutoff="1.0000000000000000"/>
      <sparseX i="271" alpha="-1995.4240924873600" sparseCutoff="1.0000000000000000"/>
      <sparseX i="272" alpha="-1223.2347159975820" sparseCutoff="1.0000000000000000"/>
      <sparseX i="273" alpha="-1230.5520214435262" sparseCutoff="1.0000000000000000"/>
      <sparseX i="274" alpha="432.81554522990047" sparseCutoff="1.0000000000000000"/>
      <sparseX i="275" alpha="-1476.1723206344841" sparseCutoff="1.0000000000000000"/>
      <sparseX i="276" alpha="-512.56719974334976" sparseCutoff="1.0000000000000000"/>
      <sparseX i="277" alpha="-678.59258933162630" sparseCutoff="1.0000000000000000"/>
      <sparseX i="278" alpha="2150.0430098294100" sparseCutoff="1.0000000000000000"/>
      <sparseX i="279" alpha="349.74949981199455" sparseCutoff="1.0000000000000000"/>
      <sparseX i="280" alpha="1171.7139066948403" sparseCutoff="1.0000000000000000"/>
      <sparseX i="281" alpha="1512.3506523929163" sparseCutoff="1.0000000000000000"/>
      <sparseX i="282" alpha="4147.7920810873038" sparseCutoff="1.0000000000000000"/>
      <sparseX i="283" alpha="1097.8761297515102" sparseCutoff="1.0000000000000000"/>
      <sparseX i="284" alpha="-1320.5723348686374" sparseCutoff="1.0000000000000000"/>
      <sparseX i="285" alpha="149.30052807263411" sparseCutoff="1.0000000000000000"/>
      <sparseX i="286" alpha="-2654.8727443502698" sparseCutoff="1.0000000000000000"/>
      <sparseX i="287" alpha="-2886.5591382059338" sparseCutoff="1.0000000000000000"/>
      <sparseX i="288" alpha="1969.3813840693806" sparseCutoff="1.0000000000000000"/>
      <sparseX i="289" alpha="220.46012645308042" sparseCutoff="1.0000000000000000"/>
      <sparseX i="290" alpha="-1021.5279287810120" sparseCutoff="1.0000000000000000"/>
      <sparseX i="291" alpha="520.10841881108092" sparseCutoff="1.0000000000000000"/>
      <sparseX i="292" alpha="-515.60666230404638" sparseCutoff="1.0000000000000000"/>
      <sparseX i="293" alpha="813.87967233880920" sparseCutoff="1.0000000000000000"/>
      <sparseX i="294" alpha="369.80731615624967" sparseCutoff="1.0000000000000000"/>
      <sparseX i="295" alpha="758.16952599819990" sparseCutoff="1.0000000000000000"/>
      <sparseX i="296" alpha="-1217.4830376493644" sparseCutoff="1.0000000000000000"/>
      <sparseX i="297" alpha="-127.00571255931051" sparseCutoff="1.0000000000000000"/>
      <sparseX i="298" alpha="1546.7571638973002" sparseCutoff="1.0000000000000000"/>
      <sparseX i="299" alpha="254.61006059940470" sparseCutoff="1.0000000000000000"/>
      <sparseX i="300" alpha="429.45402652989560" sparseCutoff="1.0000000000000000"/>
      <sparseX i="301" alpha="-313.51324537421664" sparseCutoff="1.0000000000000000"/>
      <sparseX i="302" alpha="1867.0443745176051" sparseCutoff="1.0000000000000000"/>
      <sparseX i="303" alpha="1158.8698651840532" sparseCutoff="1.0000000000000000"/>
      <sparseX i="304" alpha="-732.06983428874821" sparseCutoff="1.0000000000000000"/>
      <sparseX i="305" alpha="-998.32469194813689" sparseCutoff="1.0000000000000000"/>
      <sparseX i="306" alpha="618.05866572253012" sparseCutoff="1.0000000000000000"/>
      <sparseX i="307" alpha="444.05649072747860" sparseCutoff="1.0000000000000000"/>
      <sparseX i="308" alpha="1643.3141240113255" sparseCutoff="1.0000000000000000"/>
      <sparseX i="309" alpha="486.10063006485348" sparseCutoff="1.0000000000000000"/>
      <sparseX i="310" alpha="337.85819552055074" sparseCutoff="1.0000000000000000"/>
      <sparseX i="311" alpha="685.12052337825287" sparseCutoff="1.0000000000000000"/>
      <sparseX i="312" alpha="684.92683885455381" sparseCutoff="1.0000000000000000"/>
      <sparseX i="313" alpha="423.37037404681553" sparseCutoff="1.0000000000000000"/>
      <sparseX i="314" alpha="-872.39282117631024" sparseCutoff="1.0000000000000000"/>
      <sparseX i="315" alpha="-104.42255601647373" sparseCutoff="1.0000000000000000"/>
      <sparseX i="316" alpha="-217.05459020721412" sparseCutoff="1.0000000000000000"/>
      <sparseX i="317" alpha="1273.0648348700852" sparseCutoff="1.0000000000000000"/>
      <sparseX i="318" alpha="882.65379698166873" sparseCutoff="1.0000000000000000"/>
      <sparseX i="319" alpha="152.42743239924874" sparseCutoff="1.0000000000000000"/>
      <sparseX i="320" alpha="-135.15782457462495" sparseCutoff="1.0000000000000000"/>
      <sparseX i="321" alpha="233.11154572178924" sparseCutoff="1.0000000000000000"/>
      <sparseX i="322" alpha="-1104.3544905594565" sparseCutoff="1.0000000000000000"/>
      <sparseX i="323" alpha="456.31281791451988" sparseCutoff="1.0000000000000000"/>
      <sparseX i="324" alpha="809.25882253111342" sparseCutoff="1.0000000000000000"/>
      <sparseX i="325" alpha="714.75017394944098" sparseCutoff="1.0000000000000000"/>
      <sparseX i="326" alpha="-903.19839056126443" sparseCutoff="1.0000000000000000"/>
      <sparseX i="327" alpha="-955.40618461852785" sparseCutoff="1.0000000000000000"/>
      <sparseX i="328" alpha="1858.5438172061565" sparseCutoff="1.0000000000000000"/>
      <sparseX i="329" alpha="-1301.5330447376814" sparseCutoff="1.0000000000000000"/>
      <sparseX i="330" alpha="242.74004005160180" sparseCutoff="1.0000000000000000"/>
      <sparseX i="331" alpha="1903.3829167405815" sparseCutoff="1.0000000000000000"/>
      <sparseX i="332" alpha="-89.865495780077779" sparseCutoff="1.0000000000000000"/>
      <sparseX i="333" alpha="-617.95576395561795" sparseCutoff="1.0000000000000000"/>
      <sparseX i="334" alpha="-92.450113828830467" sparseCutoff="1.0000000000000000"/>
      <sparseX i="335" alpha="-1739.9994775331463" sparseCutoff="1.0000000000000000"/>
      <sparseX i="336" alpha="1202.5035253071944" sparseCutoff="1.0000000000000000"/>
      <sparseX i="337" alpha="-288.53586202436350" sparseCutoff="1.0000000000000000"/>
      <sparseX i="338" alpha="1432.9361816490355" sparseCutoff="1.0000000000000000"/>
      <sparseX i="339" alpha="763.78646765389419" sparseCutoff="1.0000000000000000"/>
      <sparseX i="340" alpha="238.32046835726123" sparseCutoff="1.0000000000000000"/>
      <sparseX i="341" alpha="-401.00053016783716" sparseCutoff="1.0000000000000000"/>
      <sparseX i="342" alpha="-170.36306053400676" sparseCutoff="1.0000000000000000"/>
      <sparseX i="343" alpha="-171.67956396552543" sparseCutoff="1.0000000000000000"/>
      <sparseX i="344" alpha="-172.92430578331079" sparseCutoff="1.0000000000000000"/>
      <sparseX i="345" alpha="494.62328850512307" sparseCutoff="1.0000000000000000"/>
      <sparseX i="346" alpha="-1241.6069162798626" sparseCutoff="1.0000000000000000"/>
      <sparseX i="347" alpha="1591.6934612999564" sparseCutoff="1.0000000000000000"/>
      <sparseX i="348" alpha="2979.4400121739036" sparseCutoff="1.0000000000000000"/>
      <sparseX i="349" alpha="845.49079448354064" sparseCutoff="1.0000000000000000"/>
      <sparseX i="350" alpha="-903.72829451710027" sparseCutoff="1.0000000000000000"/>
      <sparseX i="351" alpha="900.39165705232176" sparseCutoff="1.0000000000000000"/>
      <sparseX i="352" alpha="-350.64956532986321" sparseCutoff="1.0000000000000000"/>
      <sparseX i="353" alpha="-330.10055325284827" sparseCutoff="1.0000000000000000"/>
      <sparseX i="354" alpha="1008.9014736286906" sparseCutoff="1.0000000000000000"/>
      <sparseX i="355" alpha="4.7793739876313115" sparseCutoff="1.0000000000000000"/>
      <sparseX i="356" alpha="478.70611887718758" sparseCutoff="1.0000000000000000"/>
      <sparseX i="357" alpha="2421.4744141849569" sparseCutoff="1.0000000000000000"/>
      <sparseX i="358" alpha="413.63068254938077" sparseCutoff="1.0000000000000000"/>
      <sparseX i="359" alpha="-243.84737555015292" sparseCutoff="1.0000000000000000"/>
      <sparseX i="360" alpha="-521.96038100936312" sparseCutoff="1.0000000000000000"/>
      <sparseX i="361" alpha="-416.92536060811966" sparseCutoff="1.0000000000000000"/>
      <sparseX i="362" alpha="1422.2780101963290" sparseCutoff="1.0000000000000000"/>
      <sparseX i="363" alpha="1032.2292682404254" sparseCutoff="1.0000000000000000"/>
      <sparseX i="364" alpha="986.52848506887676" sparseCutoff="1.0000000000000000"/>
      <sparseX i="365" alpha="2009.7057521290187" sparseCutoff="1.0000000000000000"/>
      <sparseX i="366" alpha="701.97226302322599" sparseCutoff="1.0000000000000000"/>
      <sparseX i="367" alpha="-912.66237388308571" sparseCutoff="1.0000000000000000"/>
      <sparseX i="368" alpha="927.16116784450924" sparseCutoff="1.0000000000000000"/>
      <sparseX i="369" alpha="-42.361279296414764" sparseCutoff="1.0000000000000000"/>
      <sparseX i="370" alpha="-175.27899978233259" sparseCutoff="1.0000000000000000"/>
      <sparseX i="371" alpha="661.09696448148156" sparseCutoff="1.0000000000000000"/>
      <sparseX i="372" alpha="503.37601527314439" sparseCutoff="1.0000000000000000"/>
      <sparseX i="373" alpha="2047.6437944170641" sparseCutoff="1.0000000000000000"/>
      <sparseX i="374" alpha="3858.6357169399244" sparseCutoff="1.0000000000000000"/>
      <sparseX i="375" alpha="-375.99895012583715" sparseCutoff="1.0000000000000000"/>
      <sparseX i="376" alpha="-99.756448368861939" sparseCutoff="1.0000000000000000"/>
      <sparseX i="377" alpha="481.36773466213089" sparseCutoff="1.0000000000000000"/>
      <sparseX i="378" alpha="1460.0750225850752" sparseCutoff="1.0000000000000000"/>
      <sparseX i="379" alpha="455.03777520631701" sparseCutoff="1.0000000000000000"/>
      <sparseX i="380" alpha="-1270.4725089589094" sparseCutoff="1.0000000000000000"/>
      <sparseX i="381" alpha="814.09714135313061" sparseCutoff="1.0000000000000000"/>
      <sparseX i="382" alpha="1449.9805573801680" sparseCutoff="1.0000000000000000"/>
      <sparseX i="383" alpha="-927.60941438754753" sparseCutoff="1.0000000000000000"/>
      <sparseX i="384" alpha="1013.2931028726198" sparseCutoff="1.0000000000000000"/>
      <sparseX i="385" alpha="-789.36428626239569" sparseCutoff="1.0000000000000000"/>
      <sparseX i="386" alpha="-15.412019178230375" sparseCutoff="1.0000000000000000"/>
      <sparseX i="387" alpha="-192.64097885427836" sparseCutoff="1.0000000000000000"/>
      <sparseX i="388" alpha="59.542447098459846" sparseCutoff="1.0000000000000000"/>
      <sparseX i="389" alpha="1319.5214509452883" sparseCutoff="1.0000000000000000"/>
      <sparseX i="390" alpha="-532.58181185396666" sparseCutoff="1.0000000000000000"/>
      <sparseX i="391" alpha="865.90995463554304" sparseCutoff="1.0000000000000000"/>
      <sparseX i="392" alpha="-810.41732511592897" sparseCutoff="1.0000000000000000"/>
      <sparseX i="393" alpha="-459.28416539039137" sparseCutoff="1.0000000000000000"/>
      <sparseX i="394" alpha="1518.4533275414669" sparseCutoff="1.0000000000000000"/>
      <sparseX i="395" alpha="-1334.3651144695252" sparseCutoff="1.0000000000000000"/>
      <sparseX i="396" alpha="397.59941712309370" sparseCutoff="1.0000000000000000"/>
      <sparseX i="397" alpha="1040.3812050575834" sparseCutoff="1.0000000000000000"/>
      <sparseX i="398" alpha="156.37057800448162" sparseCutoff="1.0000000000000000"/>
      <sparseX i="399" alpha="-978.72992487636725" sparseCutoff="1.0000000000000000"/>
      <sparseX i="400" alpha="-628.33241490750765" sparseCutoff="1.0000000000000000"/>
      <sparseX i="401" alpha="4130.6011969676447" sparseCutoff="1.0000000000000000"/>
      <sparseX i="402" alpha="1407.8882423171297" sparseCutoff="1.0000000000000000"/>
      <sparseX i="403" alpha="591.56049515475479" sparseCutoff="1.0000000000000000"/>
      <sparseX i="404" alpha="-168.78989526319262" sparseCutoff="1.0000000000000000"/>
      <sparseX i="405" alpha="-1086.6733292922875" sparseCutoff="1.0000000000000000"/>
      <sparseX i="406" alpha="479.22273876076412" sparseCutoff="1.0000000000000000"/>
      <sparseX i="407" alpha="2500.0407690487546" sparseCutoff="1.0000000000000000"/>
      <sparseX i="408" alpha="-281.49845884583669" sparseCutoff="1.0000000000000000"/>
      <sparseX i="409" alpha="426.84087792433519" sparseCutoff="1.0000000000000000"/>
      <sparseX i="410" alpha="84.748806302770973" sparseCutoff="1.0000000000000000"/>
      <sparseX i="411" alpha="423.68173948505176" sparseCutoff="1.0000000000000000"/>
      <sparseX i="412" alpha="136.57670315190737" sparseCutoff="1.0000000000000000"/>
      <sparseX i="413" alpha="-3380.5333526342702" sparseCutoff="1.0000000000000000"/>
      <sparseX i="414" alpha="-934.55859214088548" sparseCutoff="1.0000000000000000"/>
      <sparseX i="415" alpha="196.24739885728971" sparseCutoff="1.0000000000000000"/>
      <sparseX i="416" alpha="-1920.1654425560357" sparseCutoff="1.0000000000000000"/>
      <sparseX i="417" alpha="327.69669526742143" sparseCutoff="1.0000000000000000"/>
      <sparseX i="418" alpha="64.948251139972200" sparseCutoff="1.0000000000000000"/>
      <sparseX i="419" alpha="1348.4969397518005" sparseCutoff="1.0000000000000000"/>
      <sparseX i="420" alpha="2254.7007344089720" sparseCutoff="1.0000000000000000"/>
      <sparseX i="421" alpha="283.74631381296660" sparseCutoff="1.0000000000000000"/>
      <sparseX i="422" alpha="-928.51467382463443" sparseCutoff="1.0000000000000000"/>
      <sparseX i="423" alpha="538.31382903126598" sparseCutoff="1.0000000000000000"/>
      <sparseX i="424" alpha="528.62799491978035" sparseCutoff="1.0000000000000000"/>
      <sparseX i="425" alpha="35.451458930611764" sparseCutoff="1.0000000000000000"/>
      <sparseX i="426" alpha="-4711.6887603400064" sparseCutoff="1.0000000000000000"/>
      <sparseX i="427" alpha="-788.71020143280145" sparseCutoff="1.0000000000000000"/>
      <sparseX i="428" alpha="1250.6267982172790" sparseCutoff="1.0000000000000000"/>
      <sparseX i="429" alpha="746.82574350076641" sparseCutoff="1.0000000000000000"/>
      <sparseX i="430" alpha="460.00615912050915" sparseCutoff="1.0000000000000000"/>
      <sparseX i="431" alpha="-7.6495905253437373" sparseCutoff="1.0000000000000000"/>
      <sparseX i="432" alpha="-280.73499734241040" sparseCutoff="1.0000000000000000"/>
      <sparseX i="433" alpha="-762.23014836328014" sparseCutoff="1.0000000000000000"/>
      <sparseX i="434" alpha="-200.67825879043440" sparseCutoff="1.0000000000000000"/>
      <sparseX i="435" alpha="-10.965799657600373" sparseCutoff="1.0000000000000000"/>
      <sparseX i="436" alpha="-459.47415769285743" sparseCutoff="1.0000000000000000"/>
      <sparseX i="437" alpha="4093.1713256599228" sparseCutoff="1.0000000000000000"/>
      <sparseX i="438" alpha="2561.7162058614736" sparseCutoff="1.0000000000000000"/>
      <sparseX i="439" alpha="3713.8833941422859" sparseCutoff="1.0000000000000000"/>
      <sparseX i="440" alpha="573.84469050636039" sparseCutoff="1.0000000000000000"/>
      <sparseX i="441" alpha="-.40975536055034945" sparseCutoff="1.0000000000000000"/>
      <sparseX i="442" alpha="1940.9599328760723" sparseCutoff="1.0000000000000000"/>
      <sparseX i="443" alpha="-170.26427517549004" sparseCutoff="1.0000000000000000"/>
      <sparseX i="444" alpha="210.59458395800084" sparseCutoff="1.0000000000000000"/>
      <sparseX i="445" alpha="1281.9488694332870" sparseCutoff="1.0000000000000000"/>
      <sparseX i="446" alpha="-212.59666923920810" sparseCutoff="1.0000000000000000"/>
      <sparseX i="447" alpha="-828.75390700259300" sparseCutoff="1.0000000000000000"/>
      <sparseX i="448" alpha="1206.4756146523935" sparseCutoff="1.0000000000000000"/>
      <sparseX i="449" alpha="-1773.3297707048714" sparseCutoff="1.0000000000000000"/>
      <sparseX i="450" alpha="266.79611950627884" sparseCutoff="1.0000000000000000"/>
      <sparseX i="451" alpha="-1008.4957148742928" sparseCutoff="1.0000000000000000"/>
      <sparseX i="452" alpha="-132.29490088464490" sparseCutoff="1.0000000000000000"/>
      <sparseX i="453" alpha="-434.05072749673258" sparseCutoff="1.0000000000000000"/>
      <sparseX i="454" alpha="-2062.5151641533471" sparseCutoff="1.0000000000000000"/>
      <sparseX i="455" alpha="1081.2987851117230" sparseCutoff="1.0000000000000000"/>
      <sparseX i="456" alpha="1266.0897978733572" sparseCutoff="1.0000000000000000"/>
      <sparseX i="457" alpha="1052.5304873424450" sparseCutoff="1.0000000000000000"/>
      <sparseX i="458" alpha="1446.2424129402109" sparseCutoff="1.0000000000000000"/>
      <sparseX i="459" alpha="-887.92469809318959" sparseCutoff="1.0000000000000000"/>
      <sparseX i="460" alpha="-1323.4757549158487" sparseCutoff="1.0000000000000000"/>
      <sparseX i="461" alpha="550.65914703969270" sparseCutoff="1.0000000000000000"/>
      <sparseX i="462" alpha="970.17274961184171" sparseCutoff="1.0000000000000000"/>
      <sparseX i="463" alpha="-1023.2615417392768" sparseCutoff="1.0000000000000000"/>
      <sparseX i="464" alpha="978.68373355205642" sparseCutoff="1.0000000000000000"/>
      <sparseX i="465" alpha="-7.3803221964925294" sparseCutoff="1.0000000000000000"/>
      <sparseX i="466" alpha="1636.2997199326205" sparseCutoff="1.0000000000000000"/>
      <sparseX i="467" alpha="1394.7489649985278" sparseCutoff="1.0000000000000000"/>
      <sparseX i="468" alpha="-2728.7019242342699" sparseCutoff="1.0000000000000000"/>
      <sparseX i="469" alpha="1788.6167994102098" sparseCutoff="1.0000000000000000"/>
      <sparseX i="470" alpha="463.56867262027174" sparseCutoff="1.0000000000000000"/>
      <sparseX i="471" alpha="-471.56985478235316" sparseCutoff="1.0000000000000000"/>
      <sparseX i="472" alpha="-1107.9624902175203" sparseCutoff="1.0000000000000000"/>
      <sparseX i="473" alpha="-262.77138529834900" sparseCutoff="1.0000000000000000"/>
      <sparseX i="474" alpha="-106.23116891192532" sparseCutoff="1.0000000000000000"/>
      <sparseX i="475" alpha="320.10866559274569" sparseCutoff="1.0000000000000000"/>
      <sparseX i="476" alpha="912.91002595729037" sparseCutoff="1.0000000000000000"/>
      <sparseX i="477" alpha="627.45681722063171" sparseCutoff="1.0000000000000000"/>
      <sparseX i="478" alpha="1535.1906775414930" sparseCutoff="1.0000000000000000"/>
      <sparseX i="479" alpha="1212.5213300100231" sparseCutoff="1.0000000000000000"/>
      <sparseX i="480" alpha="437.77907852584360" sparseCutoff="1.0000000000000000"/>
      <sparseX i="481" alpha="1131.3662099938197" sparseCutoff="1.0000000000000000"/>
      <sparseX i="482" alpha="1078.5307482507656" sparseCutoff="1.0000000000000000"/>
      <sparseX i="483" alpha="3420.9708660153738" sparseCutoff="1.0000000000000000"/>
      <sparseX i="484" alpha="-386.11306768143930" sparseCutoff="1.0000000000000000"/>
      <sparseX i="485" alpha="1989.8116807897627" sparseCutoff="1.0000000000000000"/>
      <sparseX i="486" alpha="1298.6714388593741" sparseCutoff="1.0000000000000000"/>
      <sparseX i="487" alpha="1460.9711179824121" sparseCutoff="1.0000000000000000"/>
      <sparseX i="488" alpha="1191.0519662089619" sparseCutoff="1.0000000000000000"/>
      <sparseX i="489" alpha="-581.44651279316952" sparseCutoff="1.0000000000000000"/>
      <sparseX i="490" alpha="846.84694442361399" sparseCutoff="1.0000000000000000"/>
      <sparseX i="491" alpha="-994.77677025749506" sparseCutoff="1.0000000000000000"/>
      <sparseX i="492" alpha="884.11677244436180" sparseCutoff="1.0000000000000000"/>
      <sparseX i="493" alpha="1239.2370249080011" sparseCutoff="1.0000000000000000"/>
      <sparseX i="494" alpha="900.68144495822492" sparseCutoff="1.0000000000000000"/>
      <sparseX i="495" alpha="-1773.7427991399945" sparseCutoff="1.0000000000000000"/>
      <sparseX i="496" alpha="1042.2621513694144" sparseCutoff="1.0000000000000000"/>
      <sparseX i="497" alpha="939.40707803269129" sparseCutoff="1.0000000000000000"/>
      <sparseX i="498" alpha="-724.98108445294440" sparseCutoff="1.0000000000000000"/>
      <sparseX i="499" alpha="33.759751875158642" sparseCutoff="1.0000000000000000"/>
      <sparseX i="500" alpha="361.63124084357594" sparseCutoff="1.0000000000000000"/>
      <sparseX i="501" alpha="-892.28529962975722" sparseCutoff="1.0000000000000000"/>
      <sparseX i="502" alpha="104.73863903847472" sparseCutoff="1.0000000000000000"/>
      <sparseX i="503" alpha="186.12666727960533" sparseCutoff="1.0000000000000000"/>
      <sparseX i="504" alpha="262.61313991789012" sparseCutoff="1.0000000000000000"/>
      <sparseX i="505" alpha="1133.6405364637162" sparseCutoff="1.0000000000000000"/>
      <sparseX i="506" alpha="537.29721194635806" sparseCutoff="1.0000000000000000"/>
      <sparseX i="507" alpha="1068.0108503011525" sparseCutoff="1.0000000000000000"/>
      <sparseX i="508" alpha="-26.609712987665656" sparseCutoff="1.0000000000000000"/>
      <sparseX i="509" alpha="-3273.7659136961083" sparseCutoff="1.0000000000000000"/>
      <sparseX i="510" alpha="-1294.9271462876138" sparseCutoff="1.0000000000000000"/>
      <sparseX i="511" alpha="495.86343760323206" sparseCutoff="1.0000000000000000"/>
      <sparseX i="512" alpha="1403.2728030310373" sparseCutoff="1.0000000000000000"/>
      <sparseX i="513" alpha="1437.9551809902655" sparseCutoff="1.0000000000000000"/>
      <sparseX i="514" alpha="1741.1156673865112" sparseCutoff="1.0000000000000000"/>
      <sparseX i="515" alpha="370.87059056615561" sparseCutoff="1.0000000000000000"/>
      <sparseX i="516" alpha="-1508.2970770287548" sparseCutoff="1.0000000000000000"/>
      <sparseX i="517" alpha="1323.8375008731227" sparseCutoff="1.0000000000000000"/>
      <sparseX i="518" alpha="112.80033074176519" sparseCutoff="1.0000000000000000"/>
      <sparseX i="519" alpha="849.90303691914255" sparseCutoff="1.0000000000000000"/>
      <sparseX i="520" alpha="261.02006438415111" sparseCutoff="1.0000000000000000"/>
      <sparseX i="521" alpha="709.32102729273231" sparseCutoff="1.0000000000000000"/>
      <sparseX i="522" alpha="123.12599787271019" sparseCutoff="1.0000000000000000"/>
      <sparseX i="523" alpha="-810.63092287505560" sparseCutoff="1.0000000000000000"/>
      <sparseX i="524" alpha="209.10763330174959" sparseCutoff="1.0000000000000000"/>
      <sparseX i="525" alpha="-512.80552038361668" sparseCutoff="1.0000000000000000"/>
      <sparseX i="526" alpha="4414.7737323425581" sparseCutoff="1.0000000000000000"/>
      <sparseX i="527" alpha="278.48446074337369" sparseCutoff="1.0000000000000000"/>
      <sparseX i="528" alpha="296.01835489824225" sparseCutoff="1.0000000000000000"/>
      <sparseX i="529" alpha="22.835413009061043" sparseCutoff="1.0000000000000000"/>
      <sparseX i="530" alpha="-2297.5074444133097" sparseCutoff="1.0000000000000000"/>
      <sparseX i="531" alpha="477.08226236873514" sparseCutoff="1.0000000000000000"/>
      <sparseX i="532" alpha="1177.8065253517743" sparseCutoff="1.0000000000000000"/>
      <sparseX i="533" alpha="505.53948838986975" sparseCutoff="1.0000000000000000"/>
      <sparseX i="534" alpha="629.94792666390538" sparseCutoff="1.0000000000000000"/>
      <sparseX i="535" alpha="1957.3236789582320" sparseCutoff="1.0000000000000000"/>
      <sparseX i="536" alpha="1074.9307054205217" sparseCutoff="1.0000000000000000"/>
      <sparseX i="537" alpha="-127.91817955075324" sparseCutoff="1.0000000000000000"/>
      <sparseX i="538" alpha="417.19382538409860" sparseCutoff="1.0000000000000000"/>
      <sparseX i="539" alpha="674.28339165017985" sparseCutoff="1.0000000000000000"/>
      <sparseX i="540" alpha="-1580.3687529504207" sparseCutoff="1.0000000000000000"/>
      <sparseX i="541" alpha="1036.1395868869270" sparseCutoff="1.0000000000000000"/>
      <sparseX i="542" alpha="196.70553662729165" sparseCutoff="1.0000000000000000"/>
      <sparseX i="543" alpha="1732.1128027426946" sparseCutoff="1.0000000000000000"/>
      <sparseX i="544" alpha="-506.21240294272513" sparseCutoff="1.0000000000000000"/>
      <sparseX i="545" alpha="297.41766997987622" sparseCutoff="1.0000000000000000"/>
      <sparseX i="546" alpha="-163.52302894635369" sparseCutoff="1.0000000000000000"/>
      <sparseX i="547" alpha="-908.66029836066764" sparseCutoff="1.0000000000000000"/>
      <sparseX i="548" alpha="-209.26309578125071" sparseCutoff="1.0000000000000000"/>
      <sparseX i="549" alpha="-1025.6702308820504" sparseCutoff="1.0000000000000000"/>
      <sparseX i="550" alpha="714.94613859783590" sparseCutoff="1.0000000000000000"/>
      <sparseX i="551" alpha="408.10193701468091" sparseCutoff="1.0000000000000000"/>
      <sparseX i="552" alpha="-809.33051254825205" sparseCutoff="1.0000000000000000"/>
      <sparseX i="553" alpha="880.53524171101606" sparseCutoff="1.0000000000000000"/>
      <sparseX i="554" alpha="898.51804701666083" sparseCutoff="1.0000000000000000"/>
      <sparseX i="555" alpha="-207.41831347656938" sparseCutoff="1.0000000000000000"/>
      <sparseX i="556" alpha="14.185258342170682" sparseCutoff="1.0000000000000000"/>
      <sparseX i="557" alpha="-847.83261416782113" sparseCutoff="1.0000000000000000"/>
      <sparseX i="558" alpha="17.385637537745779" sparseCutoff="1.0000000000000000"/>
      <sparseX i="559" alpha="-720.45883186280707" sparseCutoff="1.0000000000000000"/>
      <sparseX i="560" alpha="45.135922892105185" sparseCutoff="1.0000000000000000"/>
      <sparseX i="561" alpha="-1058.7963539300918" sparseCutoff="1.0000000000000000"/>
      <sparseX i="562" alpha="-967.86084013839024" sparseCutoff="1.0000000000000000"/>
      <sparseX i="563" alpha="859.69225811947945" sparseCutoff="1.0000000000000000"/>
      <sparseX i="564" alpha="-883.00466601734229" sparseCutoff="1.0000000000000000"/>
      <sparseX i="565" alpha="-433.37779353838158" sparseCutoff="1.0000000000000000"/>
      <sparseX i="566" alpha="408.83840812044502" sparseCutoff="1.0000000000000000"/>
      <sparseX i="567" alpha="834.34034099947314" sparseCutoff="1.0000000000000000"/>
      <sparseX i="568" alpha="-735.96385602919759" sparseCutoff="1.0000000000000000"/>
      <sparseX i="569" alpha="-2.7173787368369844" sparseCutoff="1.0000000000000000"/>
      <sparseX i="570" alpha="-850.96575794454418" sparseCutoff="1.0000000000000000"/>
      <sparseX i="571" alpha="1350.9706166375945" sparseCutoff="1.0000000000000000"/>
      <sparseX i="572" alpha="384.40936956770048" sparseCutoff="1.0000000000000000"/>
      <sparseX i="573" alpha="-104.75698778279111" sparseCutoff="1.0000000000000000"/>
      <sparseX i="574" alpha="-410.78790890329236" sparseCutoff="1.0000000000000000"/>
      <sparseX i="575" alpha="-235.03076175084669" sparseCutoff="1.0000000000000000"/>
      <sparseX i="576" alpha="-156.88077006288177" sparseCutoff="1.0000000000000000"/>
      <sparseX i="577" alpha="-385.57571449917447" sparseCutoff="1.0000000000000000"/>
      <sparseX i="578" alpha="-577.75339692219836" sparseCutoff="1.0000000000000000"/>
      <sparseX i="579" alpha="442.70319782413162" sparseCutoff="1.0000000000000000"/>
      <sparseX i="580" alpha="30.024784810626400" sparseCutoff="1.0000000000000000"/>
      <sparseX i="581" alpha="258.69073864585363" sparseCutoff="1.0000000000000000"/>
      <sparseX i="582" alpha="640.79753041460731" sparseCutoff="1.0000000000000000"/>
      <sparseX i="583" alpha="313.76536556152473" sparseCutoff="1.0000000000000000"/>
      <sparseX i="584" alpha="448.55674705328488" sparseCutoff="1.0000000000000000"/>
      <sparseX i="585" alpha="1317.2202369260465" sparseCutoff="1.0000000000000000"/>
      <sparseX i="586" alpha="1068.6370502307275" sparseCutoff="1.0000000000000000"/>
      <sparseX i="587" alpha="290.83322445715726" sparseCutoff="1.0000000000000000"/>
      <sparseX i="588" alpha="537.15906695974422" sparseCutoff="1.0000000000000000"/>
      <sparseX i="589" alpha="-2108.0908984929115" sparseCutoff="1.0000000000000000"/>
      <sparseX i="590" alpha="-1085.6853812203394" sparseCutoff="1.0000000000000000"/>
      <sparseX i="591" alpha="970.93265162576665" sparseCutoff="1.0000000000000000"/>
      <sparseX i="592" alpha="-1061.5528111797123" sparseCutoff="1.0000000000000000"/>
      <sparseX i="593" alpha="1392.3263635464607" sparseCutoff="1.0000000000000000"/>
      <sparseX i="594" alpha="-1808.8889626273701" sparseCutoff="1.0000000000000000"/>
      <sparseX i="595" alpha="-882.43140234680709" sparseCutoff="1.0000000000000000"/>
      <sparseX i="596" alpha="509.38563506149620" sparseCutoff="1.0000000000000000"/>
      <sparseX i="597" alpha="587.42767539462227" sparseCutoff="1.0000000000000000"/>
      <sparseX i="598" alpha="848.00478601090151" sparseCutoff="1.0000000000000000"/>
      <sparseX i="599" alpha="-806.26601635170846" sparseCutoff="1.0000000000000000"/>
      <sparseX i="600" alpha="413.71392982389864" sparseCutoff="1.0000000000000000"/>
      <sparseX i="601" alpha="-821.19971164659478" sparseCutoff="1.0000000000000000"/>
      <sparseX i="602" alpha="2009.7230486832234" sparseCutoff="1.0000000000000000"/>
      <sparseX i="603" alpha="291.45615100044444" sparseCutoff="1.0000000000000000"/>
      <sparseX i="604" alpha="391.34892957758018" sparseCutoff="1.0000000000000000"/>
      <sparseX i="605" alpha="-337.44731440752133" sparseCutoff="1.0000000000000000"/>
      <sparseX i="606" alpha="-92.063399085356110" sparseCutoff="1.0000000000000000"/>
      <sparseX i="607" alpha="60.975167212979862" sparseCutoff="1.0000000000000000"/>
      <sparseX i="608" alpha="998.23506900285190" sparseCutoff="1.0000000000000000"/>
      <sparseX i="609" alpha="-1499.5181119631686" sparseCutoff="1.0000000000000000"/>
      <sparseX i="610" alpha="650.69196616700003" sparseCutoff="1.0000000000000000"/>
      <sparseX i="611" alpha="-1850.0277324355770" sparseCutoff="1.0000000000000000"/>
      <sparseX i="612" alpha="260.08721181129903" sparseCutoff="1.0000000000000000"/>
      <sparseX i="613" alpha="256.49163866926193" sparseCutoff="1.0000000000000000"/>
      <sparseX i="614" alpha="276.98690350658438" sparseCutoff="1.0000000000000000"/>
      <sparseX i="615" alpha="545.62233650636631" sparseCutoff="1.0000000000000000"/>
      <sparseX i="616" alpha="501.42380451599212" sparseCutoff="1.0000000000000000"/>
      <sparseX i="617" alpha="-334.55105641549437" sparseCutoff="1.0000000000000000"/>
      <sparseX i="618" alpha="245.83201835605837" sparseCutoff="1.0000000000000000"/>
      <sparseX i="619" alpha="1393.6266913649936" sparseCutoff="1.0000000000000000"/>
      <sparseX i="620" alpha="-117.92008148919903" sparseCutoff="1.0000000000000000"/>
      <sparseX i="621" alpha="1159.8617834371348" sparseCutoff="1.0000000000000000"/>
      <sparseX i="622" alpha="-297.67772249880829" sparseCutoff="1.0000000000000000"/>
      <sparseX i="623" alpha="-877.59506723535196" sparseCutoff="1.0000000000000000"/>
      <sparseX i="624" alpha="705.76442095702544" sparseCutoff="1.0000000000000000"/>
      <sparseX i="625" alpha="932.17741259158026" sparseCutoff="1.0000000000000000"/>
      <sparseX i="626" alpha="-633.51825656037045" sparseCutoff="1.0000000000000000"/>
      <sparseX i="627" alpha="-1727.2011802210848" sparseCutoff="1.0000000000000000"/>
      <sparseX i="628" alpha="-2822.6584561919635" sparseCutoff="1.0000000000000000"/>
      <sparseX i="629" alpha="-375.53332397370474" sparseCutoff="1.0000000000000000"/>
      <sparseX i="630" alpha="-662.45722250884330" sparseCutoff="1.0000000000000000"/>
      <sparseX i="631" alpha="-1191.1123651339617" sparseCutoff="1.0000000000000000"/>
      <sparseX i="632" alpha="-393.33622977068973" sparseCutoff="1.0000000000000000"/>
      <sparseX i="633" alpha="-276.28313032918868" sparseCutoff="1.0000000000000000"/>
      <sparseX i="634" alpha="1608.3332907020365" sparseCutoff="1.0000000000000000"/>
      <sparseX i="635" alpha="745.95486093648458" sparseCutoff="1.0000000000000000"/>
      <sparseX i="636" alpha="-356.04461635402492" sparseCutoff="1.0000000000000000"/>
      <sparseX i="637" alpha="-934.45588589158251" sparseCutoff="1.0000000000000000"/>
      <sparseX i="638" alpha="-8.0916399612476706" sparseCutoff="1.0000000000000000"/>
      <sparseX i="639" alpha="504.03374374722381" sparseCutoff="1.0000000000000000"/>
      <sparseX i="640" alpha="2067.8116096056497" sparseCutoff="1.0000000000000000"/>
      <sparseX i="641" alpha="-455.58488868765926" sparseCutoff="1.0000000000000000"/>
      <sparseX i="642" alpha="-104.72166813713230" sparseCutoff="1.0000000000000000"/>
      <sparseX i="643" alpha="3113.9877485557918" sparseCutoff="1.0000000000000000"/>
      <sparseX i="644" alpha="-927.87936209222914" sparseCutoff="1.0000000000000000"/>
      <sparseX i="645" alpha="-592.07558671066442" sparseCutoff="1.0000000000000000"/>
      <sparseX i="646" alpha="657.19166116564986" sparseCutoff="1.0000000000000000"/>
      <sparseX i="647" alpha="3679.0995812361566" sparseCutoff="1.0000000000000000"/>
      <sparseX i="648" alpha="-411.32609351124705" sparseCutoff="1.0000000000000000"/>
      <sparseX i="649" alpha="330.25402891683149" sparseCutoff="1.0000000000000000"/>
      <sparseX i="650" alpha="-406.21470955557891" sparseCutoff="1.0000000000000000"/>
      <sparseX i="651" alpha="-1707.5141350573101" sparseCutoff="1.0000000000000000"/>
      <sparseX i="652" alpha="-695.24459842956480" sparseCutoff="1.0000000000000000"/>
      <sparseX i="653" alpha="350.72790720767694" sparseCutoff="1.0000000000000000"/>
      <sparseX i="654" alpha="1357.2696433817021" sparseCutoff="1.0000000000000000"/>
      <sparseX i="655" alpha="-442.72909702162411" sparseCutoff="1.0000000000000000"/>
      <sparseX i="656" alpha="-205.03405850510256" sparseCutoff="1.0000000000000000"/>
      <sparseX i="657" alpha="-977.90016889993342" sparseCutoff="1.0000000000000000"/>
      <sparseX i="658" alpha="117.58259246335983" sparseCutoff="1.0000000000000000"/>
      <sparseX i="659" alpha="-955.10979424900063" sparseCutoff="1.0000000000000000"/>
      <sparseX i="660" alpha="-68.939377465600842" sparseCutoff="1.0000000000000000"/>
      <sparseX i="661" alpha="3.5499517540731569" sparseCutoff="1.0000000000000000"/>
      <sparseX i="662" alpha="-81.272243035824928" sparseCutoff="1.0000000000000000"/>
      <sparseX i="663" alpha="1914.7809068715683" sparseCutoff="1.0000000000000000"/>
      <sparseX i="664" alpha="-179.78912852255638" sparseCutoff="1.0000000000000000"/>
      <sparseX i="665" alpha="-1369.5463048404094" sparseCutoff="1.0000000000000000"/>
      <sparseX i="666" alpha="-1794.1018797715137" sparseCutoff="1.0000000000000000"/>
      <sparseX i="667" alpha="-310.36288523960951" sparseCutoff="1.0000000000000000"/>
      <sparseX i="668" alpha="2455.2469287572976" sparseCutoff="1.0000000000000000"/>
      <sparseX i="669" alpha="-665.02848584852677" sparseCutoff="1.0000000000000000"/>
      <sparseX i="670" alpha="447.74287930204247" sparseCutoff="1.0000000000000000"/>
      <sparseX i="671" alpha="-1235.4802220594179" sparseCutoff="1.0000000000000000"/>
      <sparseX i="672" alpha="-1715.9719035733833" sparseCutoff="1.0000000000000000"/>
      <sparseX i="673" alpha="-336.01152046604454" sparseCutoff="1.0000000000000000"/>
      <sparseX i="674" alpha="313.05429522424055" sparseCutoff="1.0000000000000000"/>
      <sparseX i="675" alpha="1538.9119041172373" sparseCutoff="1.0000000000000000"/>
      <sparseX i="676" alpha="-579.36848696568359" sparseCutoff="1.0000000000000000"/>
      <sparseX i="677" alpha="1655.1543721014541" sparseCutoff="1.0000000000000000"/>
      <sparseX i="678" alpha="-1662.0019633424317" sparseCutoff="1.0000000000000000"/>
      <sparseX i="679" alpha="761.16021934451260" sparseCutoff="1.0000000000000000"/>
      <sparseX i="680" alpha="494.49341181247314" sparseCutoff="1.0000000000000000"/>
      <sparseX i="681" alpha="897.11568279059804" sparseCutoff="1.0000000000000000"/>
      <sparseX i="682" alpha="4457.4299576698904" sparseCutoff="1.0000000000000000"/>
      <sparseX i="683" alpha="-553.44821082098736" sparseCutoff="1.0000000000000000"/>
      <sparseX i="684" alpha="-16.786126587187514" sparseCutoff="1.0000000000000000"/>
      <sparseX i="685" alpha="55.078007586708537" sparseCutoff="1.0000000000000000"/>
      <sparseX i="686" alpha="2403.2121340203093" sparseCutoff="1.0000000000000000"/>
      <sparseX i="687" alpha="518.15777447605217" sparseCutoff="1.0000000000000000"/>
      <sparseX i="688" alpha="-3006.9517151898704" sparseCutoff="1.0000000000000000"/>
      <sparseX i="689" alpha="-747.07376096030760" sparseCutoff="1.0000000000000000"/>
      <sparseX i="690" alpha="-1135.3480611602431" sparseCutoff="1.0000000000000000"/>
      <sparseX i="691" alpha="1024.4719337708341" sparseCutoff="1.0000000000000000"/>
      <sparseX i="692" alpha="-383.52203845791837" sparseCutoff="1.0000000000000000"/>
      <sparseX i="693" alpha="-309.04120714946470" sparseCutoff="1.0000000000000000"/>
      <sparseX i="694" alpha="896.45338208274472" sparseCutoff="1.0000000000000000"/>
      <sparseX i="695" alpha="-868.57970115224350" sparseCutoff="1.0000000000000000"/>
      <sparseX i="696" alpha="514.38072746288344" sparseCutoff="1.0000000000000000"/>
      <sparseX i="697" alpha="3746.3713426956697" sparseCutoff="1.0000000000000000"/>
      <sparseX i="698" alpha="-44.312187187162955" sparseCutoff="1.0000000000000000"/>
      <sparseX i="699" alpha="2465.3354549215310" sparseCutoff="1.0000000000000000"/>
      <sparseX i="700" alpha="1375.7081463787574" sparseCutoff="1.0000000000000000"/>
      <sparseX i="701" alpha="601.78122783727736" sparseCutoff="1.0000000000000000"/>
      <sparseX i="702" alpha="-476.59742341527988" sparseCutoff="1.0000000000000000"/>
      <sparseX i="703" alpha="1215.0065211098643" sparseCutoff="1.0000000000000000"/>
      <sparseX i="704" alpha="-617.57880630450438" sparseCutoff="1.0000000000000000"/>
      <sparseX i="705" alpha="-648.66392594992419" sparseCutoff="1.0000000000000000"/>
      <sparseX i="706" alpha="-71.815501024611336" sparseCutoff="1.0000000000000000"/>
      <sparseX i="707" alpha="-675.38822265294948" sparseCutoff="1.0000000000000000"/>
      <sparseX i="708" alpha="1412.7182393032067" sparseCutoff="1.0000000000000000"/>
      <sparseX i="709" alpha="700.00326036863828" sparseCutoff="1.0000000000000000"/>
      <sparseX i="710" alpha="241.44294763287638" sparseCutoff="1.0000000000000000"/>
      <sparseX i="711" alpha="-772.32292165422518" sparseCutoff="1.0000000000000000"/>
      <sparseX i="712" alpha="4685.5982834046499" sparseCutoff="1.0000000000000000"/>
      <sparseX i="713" alpha="-2034.2896347559104" sparseCutoff="1.0000000000000000"/>
      <sparseX i="714" alpha="-1470.2873293959099" sparseCutoff="1.0000000000000000"/>
      <sparseX i="715" alpha="-801.36334383049575" sparseCutoff="1.0000000000000000"/>
      <sparseX i="716" alpha="1498.1864255784001" sparseCutoff="1.0000000000000000"/>
      <sparseX i="717" alpha="400.35769745165032" sparseCutoff="1.0000000000000000"/>
      <sparseX i="718" alpha="-179.58340711960565" sparseCutoff="1.0000000000000000"/>
      <sparseX i="719" alpha="-330.89370597220665" sparseCutoff="1.0000000000000000"/>
      <sparseX i="720" alpha="134.03031762063935" sparseCutoff="1.0000000000000000"/>
      <sparseX i="721" alpha="480.62335405275252" sparseCutoff="1.0000000000000000"/>
      <sparseX i="722" alpha="1940.4490541521127" sparseCutoff="1.0000000000000000"/>
      <sparseX i="723" alpha="768.39292641922179" sparseCutoff="1.0000000000000000"/>
      <sparseX i="724" alpha="-354.31372642135807" sparseCutoff="1.0000000000000000"/>
      <sparseX i="725" alpha="-872.50566968099952" sparseCutoff="1.0000000000000000"/>
      <sparseX i="726" alpha="-2072.2506181961257" sparseCutoff="1.0000000000000000"/>
      <sparseX i="727" alpha="-716.14865058688542" sparseCutoff="1.0000000000000000"/>
      <sparseX i="728" alpha="1255.9189700209122" sparseCutoff="1.0000000000000000"/>
      <sparseX i="729" alpha="19.158849408945937" sparseCutoff="1.0000000000000000"/>
      <sparseX i="730" alpha="-2584.9478055285149" sparseCutoff="1.0000000000000000"/>
      <sparseX i="731" alpha="1112.0649384525254" sparseCutoff="1.0000000000000000"/>
      <sparseX i="732" alpha="-103.26986082635139" sparseCutoff="1.0000000000000000"/>
      <sparseX i="733" alpha="-1328.4967333948191" sparseCutoff="1.0000000000000000"/>
      <sparseX i="734" alpha="-2755.0016644945567" sparseCutoff="1.0000000000000000"/>
      <sparseX i="735" alpha="-1312.1429398508812" sparseCutoff="1.0000000000000000"/>
      <sparseX i="736" alpha="887.21957468548430" sparseCutoff="1.0000000000000000"/>
      <sparseX i="737" alpha="-1643.7237310141882" sparseCutoff="1.0000000000000000"/>
      <sparseX i="738" alpha="2388.8727837474862" sparseCutoff="1.0000000000000000"/>
      <sparseX i="739" alpha="310.96356284332381" sparseCutoff="1.0000000000000000"/>
      <sparseX i="740" alpha="152.35168252812562" sparseCutoff="1.0000000000000000"/>
      <sparseX i="741" alpha="-678.18075696127664" sparseCutoff="1.0000000000000000"/>
      <sparseX i="742" alpha="-146.46369131598280" sparseCutoff="1.0000000000000000"/>
      <sparseX i="743" alpha="1625.8246004773714" sparseCutoff="1.0000000000000000"/>
      <sparseX i="744" alpha="-2318.0176079202856" sparseCutoff="1.0000000000000000"/>
      <sparseX i="745" alpha="-1017.7070636265069" sparseCutoff="1.0000000000000000"/>
      <sparseX i="746" alpha="780.94675560652081" sparseCutoff="1.0000000000000000"/>
      <sparseX i="747" alpha="1146.8908664474209" sparseCutoff="1.0000000000000000"/>
      <sparseX i="748" alpha="834.79216722143985" sparseCutoff="1.0000000000000000"/>
      <sparseX i="749" alpha="-3613.8817827955195" sparseCutoff="1.0000000000000000"/>
      <sparseX i="750" alpha="-168.12485971669577" sparseCutoff="1.0000000000000000"/>
      <sparseX i="751" alpha="-2275.3953087990521" sparseCutoff="1.0000000000000000"/>
      <sparseX i="752" alpha="1427.7936565567718" sparseCutoff="1.0000000000000000"/>
      <sparseX i="753" alpha="-1166.6159338838459" sparseCutoff="1.0000000000000000"/>
      <sparseX i="754" alpha="-639.49277968507397" sparseCutoff="1.0000000000000000"/>
      <sparseX i="755" alpha="-12.574139782780426" sparseCutoff="1.0000000000000000"/>
      <sparseX i="756" alpha="1415.2611818447112" sparseCutoff="1.0000000000000000"/>
      <sparseX i="757" alpha="-2508.5297580314609" sparseCutoff="1.0000000000000000"/>
      <sparseX i="758" alpha="362.76291716311084" sparseCutoff="1.0000000000000000"/>
      <sparseX i="759" alpha="-79.276571827890905" sparseCutoff="1.0000000000000000"/>
      <sparseX i="760" alpha="1610.5654491158054" sparseCutoff="1.0000000000000000"/>
      <sparseX i="761" alpha="-947.79221795545129" sparseCutoff="1.0000000000000000"/>
      <sparseX i="762" alpha="-1026.4517707334787" sparseCutoff="1.0000000000000000"/>
      <sparseX i="763" alpha="-485.81712261791438" sparseCutoff="1.0000000000000000"/>
      <sparseX i="764" alpha="-1071.4149354153442" sparseCutoff="1.0000000000000000"/>
      <sparseX i="765" alpha="2016.3425446344386" sparseCutoff="1.0000000000000000"/>
      <sparseX i="766" alpha="-136.06156514331477" sparseCutoff="1.0000000000000000"/>
      <sparseX i="767" alpha="-1583.2148747769706" sparseCutoff="1.0000000000000000"/>
      <sparseX i="768" alpha="778.75063416839873" sparseCutoff="1.0000000000000000"/>
      <sparseX i="769" alpha="3260.8027187713151" sparseCutoff="1.0000000000000000"/>
      <sparseX i="770" alpha="1020.7630775758961" sparseCutoff="1.0000000000000000"/>
      <sparseX i="771" alpha="2122.8163406462513" sparseCutoff="1.0000000000000000"/>
      <sparseX i="772" alpha="120.60868328528012" sparseCutoff="1.0000000000000000"/>
      <sparseX i="773" alpha="1422.2144996359375" sparseCutoff="1.0000000000000000"/>
      <sparseX i="774" alpha="813.16987276488123" sparseCutoff="1.0000000000000000"/>
      <sparseX i="775" alpha="68.996643951966831" sparseCutoff="1.0000000000000000"/>
      <sparseX i="776" alpha="1093.5752693979387" sparseCutoff="1.0000000000000000"/>
      <sparseX i="777" alpha="986.50052254742536" sparseCutoff="1.0000000000000000"/>
      <sparseX i="778" alpha="467.95270046595635" sparseCutoff="1.0000000000000000"/>
      <sparseX i="779" alpha="-542.71015602974524" sparseCutoff="1.0000000000000000"/>
      <sparseX i="780" alpha="-659.62928806118282" sparseCutoff="1.0000000000000000"/>
      <sparseX i="781" alpha="1861.3475137736814" sparseCutoff="1.0000000000000000"/>
      <sparseX i="782" alpha="2597.1239840104872" sparseCutoff="1.0000000000000000"/>
      <sparseX i="783" alpha="-18.855022352859617" sparseCutoff="1.0000000000000000"/>
      <sparseX i="784" alpha="3560.1003339520630" sparseCutoff="1.0000000000000000"/>
      <sparseX i="785" alpha="1652.2161238166648" sparseCutoff="1.0000000000000000"/>
      <sparseX i="786" alpha="-36.183938553056784" sparseCutoff="1.0000000000000000"/>
      <sparseX i="787" alpha="643.80537344827849" sparseCutoff="1.0000000000000000"/>
      <sparseX i="788" alpha="1463.9834990554280" sparseCutoff="1.0000000000000000"/>
      <sparseX i="789" alpha="-1859.2640091568353" sparseCutoff="1.0000000000000000"/>
      <sparseX i="790" alpha="-867.61972987771878" sparseCutoff="1.0000000000000000"/>
      <sparseX i="791" alpha="-25.656174282457599" sparseCutoff="1.0000000000000000"/>
      <sparseX i="792" alpha="2803.6174077248484" sparseCutoff="1.0000000000000000"/>
      <sparseX i="793" alpha="1026.3919665364047" sparseCutoff="1.0000000000000000"/>
      <sparseX i="794" alpha="-3704.1943677092559" sparseCutoff="1.0000000000000000"/>
      <sparseX i="795" alpha="786.96001650633616" sparseCutoff="1.0000000000000000"/>
      <sparseX i="796" alpha="-689.31892286119160" sparseCutoff="1.0000000000000000"/>
      <sparseX i="797" alpha="-436.61292968195659" sparseCutoff="1.0000000000000000"/>
      <sparseX i="798" alpha="-662.88220612615419" sparseCutoff="1.0000000000000000"/>
      <sparseX i="799" alpha="-157.06916501448890" sparseCutoff="1.0000000000000000"/>
      <sparseX i="800" alpha="-2039.5366631123438" sparseCutoff="1.0000000000000000"/>
      <sparseX i="801" alpha="-2054.4027034594124" sparseCutoff="1.0000000000000000"/>
      <sparseX i="802" alpha="1498.7050311934781" sparseCutoff="1.0000000000000000"/>
      <sparseX i="803" alpha="-644.01945626380564" sparseCutoff="1.0000000000000000"/>
      <sparseX i="804" alpha="1167.9032718657916" sparseCutoff="1.0000000000000000"/>
      <sparseX i="805" alpha="1769.3116294870342" sparseCutoff="1.0000000000000000"/>
      <sparseX i="806" alpha="-454.06540638932984" sparseCutoff="1.0000000000000000"/>
      <sparseX i="807" alpha="-1229.9983137324903" sparseCutoff="1.0000000000000000"/>
      <sparseX i="808" alpha="-207.87356535466068" sparseCutoff="1.0000000000000000"/>
      <sparseX i="809" alpha="-274.94162597785208" sparseCutoff="1.0000000000000000"/>
      <sparseX i="810" alpha="494.58633508615287" sparseCutoff="1.0000000000000000"/>
      <sparseX i="811" alpha="-1995.2713189980902" sparseCutoff="1.0000000000000000"/>
      <sparseX i="812" alpha="-875.50104346959074" sparseCutoff="1.0000000000000000"/>
      <sparseX i="813" alpha="756.62526857946341" sparseCutoff="1.0000000000000000"/>
      <sparseX i="814" alpha="-957.75216853881375" sparseCutoff="1.0000000000000000"/>
      <sparseX i="815" alpha="-581.26995906561046" sparseCutoff="1.0000000000000000"/>
      <sparseX i="816" alpha="1128.8367605898202" sparseCutoff="1.0000000000000000"/>
      <sparseX i="817" alpha="-1218.0215179703416" sparseCutoff="1.0000000000000000"/>
      <sparseX i="818" alpha="-140.26096563703928" sparseCutoff="1.0000000000000000"/>
      <sparseX i="819" alpha="4404.4995777118902" sparseCutoff="1.0000000000000000"/>
      <sparseX i="820" alpha="-192.23011424810625" sparseCutoff="1.0000000000000000"/>
      <sparseX i="821" alpha="498.32863469252663" sparseCutoff="1.0000000000000000"/>
      <sparseX i="822" alpha="282.53017362541340" sparseCutoff="1.0000000000000000"/>
      <sparseX i="823" alpha="-917.26852616397412" sparseCutoff="1.0000000000000000"/>
      <sparseX i="824" alpha="169.29286574006861" sparseCutoff="1.0000000000000000"/>
      <sparseX i="825" alpha="99.297631907073423" sparseCutoff="1.0000000000000000"/>
      <sparseX i="826" alpha="887.04374868660102" sparseCutoff="1.0000000000000000"/>
      <sparseX i="827" alpha="741.96731774014791" sparseCutoff="1.0000000000000000"/>
      <sparseX i="828" alpha="704.95183539564141" sparseCutoff="1.0000000000000000"/>
      <sparseX i="829" alpha="-382.88541497098083" sparseCutoff="1.0000000000000000"/>
      <sparseX i="830" alpha="1160.1445125148930" sparseCutoff="1.0000000000000000"/>
      <sparseX i="831" alpha="-220.03769142909817" sparseCutoff="1.0000000000000000"/>
      <sparseX i="832" alpha="-126.78065772139854" sparseCutoff="1.0000000000000000"/>
      <sparseX i="833" alpha="1222.7404305766220" sparseCutoff="1.0000000000000000"/>
      <sparseX i="834" alpha="-355.63271011732519" sparseCutoff="1.0000000000000000"/>
      <sparseX i="835" alpha="-3357.3065272000099" sparseCutoff="1.0000000000000000"/>
      <sparseX i="836" alpha="2188.4274266431380" sparseCutoff="1.0000000000000000"/>
      <sparseX i="837" alpha="-416.33562395720213" sparseCutoff="1.0000000000000000"/>
      <sparseX i="838" alpha="1013.5156285804718" sparseCutoff="1.0000000000000000"/>
      <sparseX i="839" alpha="-401.14038391626451" sparseCutoff="1.0000000000000000"/>
      <sparseX i="840" alpha="1172.8503089590774" sparseCutoff="1.0000000000000000"/>
      <sparseX i="841" alpha="914.42096064955183" sparseCutoff="1.0000000000000000"/>
      <sparseX i="842" alpha="-567.37783595834480" sparseCutoff="1.0000000000000000"/>
      <sparseX i="843" alpha="469.35811743991712" sparseCutoff="1.0000000000000000"/>
      <sparseX i="844" alpha="1133.5901256042430" sparseCutoff="1.0000000000000000"/>
      <sparseX i="845" alpha="2277.7541346663706" sparseCutoff="1.0000000000000000"/>
      <sparseX i="846" alpha="1813.1770729734496" sparseCutoff="1.0000000000000000"/>
      <sparseX i="847" alpha="987.45760741741799" sparseCutoff="1.0000000000000000"/>
      <sparseX i="848" alpha="185.74926612682029" sparseCutoff="1.0000000000000000"/>
      <sparseX i="849" alpha="-385.80430135259530" sparseCutoff="1.0000000000000000"/>
      <sparseX i="850" alpha="755.96034748929310" sparseCutoff="1.0000000000000000"/>
      <sparseX i="851" alpha="1688.5991115189556" sparseCutoff="1.0000000000000000"/>
      <sparseX i="852" alpha="1474.5202504842509" sparseCutoff="1.0000000000000000"/>
      <sparseX i="853" alpha="-152.61149819165439" sparseCutoff="1.0000000000000000"/>
      <sparseX i="854" alpha="218.79115210693053" sparseCutoff="1.0000000000000000"/>
      <sparseX i="855" alpha="504.02546325421599" sparseCutoff="1.0000000000000000"/>
      <sparseX i="856" alpha="-708.97472925576028" sparseCutoff="1.0000000000000000"/>
      <sparseX i="857" alpha="-732.51140843830694" sparseCutoff="1.0000000000000000"/>
      <sparseX i="858" alpha="-1157.4854938161495" sparseCutoff="1.0000000000000000"/>
      <sparseX i="859" alpha="2255.0879720565495" sparseCutoff="1.0000000000000000"/>
      <sparseX i="860" alpha="87.408536785665348" sparseCutoff="1.0000000000000000"/>
      <sparseX i="861" alpha="-927.17962677597791" sparseCutoff="1.0000000000000000"/>
      <sparseX i="862" alpha="-680.07975907189314" sparseCutoff="1.0000000000000000"/>
      <sparseX i="863" alpha="-1729.6084604623964" sparseCutoff="1.0000000000000000"/>
      <sparseX i="864" alpha="-245.10792953659245" sparseCutoff="1.0000000000000000"/>
      <sparseX i="865" alpha="239.88835166955840" sparseCutoff="1.0000000000000000"/>
      <sparseX i="866" alpha="-2555.8846235615670" sparseCutoff="1.0000000000000000"/>
      <sparseX i="867" alpha="-907.95647020531078" sparseCutoff="1.0000000000000000"/>
      <sparseX i="868" alpha="-1691.8705093572830" sparseCutoff="1.0000000000000000"/>
      <sparseX i="869" alpha="122.78657175603126" sparseCutoff="1.0000000000000000"/>
      <sparseX i="870" alpha="-319.97302682940051" sparseCutoff="1.0000000000000000"/>
      <sparseX i="871" alpha="304.46825262937779" sparseCutoff="1.0000000000000000"/>
      <sparseX i="872" alpha="-606.57797009697879" sparseCutoff="1.0000000000000000"/>
      <sparseX i="873" alpha="118.95771113527806" sparseCutoff="1.0000000000000000"/>
      <sparseX i="874" alpha="-853.72148338061754" sparseCutoff="1.0000000000000000"/>
      <sparseX i="875" alpha="-915.22789336214066" sparseCutoff="1.0000000000000000"/>
      <sparseX i="876" alpha="436.94625230867706" sparseCutoff="1.0000000000000000"/>
      <sparseX i="877" alpha="-797.77183824442864" sparseCutoff="1.0000000000000000"/>
      <sparseX i="878" alpha="1328.1519131500538" sparseCutoff="1.0000000000000000"/>
      <sparseX i="879" alpha="1306.5059092682723" sparseCutoff="1.0000000000000000"/>
      <sparseX i="880" alpha="-1424.6772626275369" sparseCutoff="1.0000000000000000"/>
      <sparseX i="881" alpha="-2521.6789518154110" sparseCutoff="1.0000000000000000"/>
      <sparseX i="882" alpha="-395.08113491019640" sparseCutoff="1.0000000000000000"/>
      <sparseX i="883" alpha="-23.555979837247428" sparseCutoff="1.0000000000000000"/>
      <sparseX i="884" alpha="323.49041061143464" sparseCutoff="1.0000000000000000"/>
      <sparseX i="885" alpha="1299.2846064486585" sparseCutoff="1.0000000000000000"/>
      <sparseX i="886" alpha="2737.0590972108689" sparseCutoff="1.0000000000000000"/>
      <sparseX i="887" alpha="-79.698388217550459" sparseCutoff="1.0000000000000000"/>
      <sparseX i="888" alpha="872.94507396825225" sparseCutoff="1.0000000000000000"/>
      <sparseX i="889" alpha="-888.96222257205977" sparseCutoff="1.0000000000000000"/>
      <sparseX i="890" alpha="888.20592923125480" sparseCutoff="1.0000000000000000"/>
      <sparseX i="891" alpha="111.01301942213028" sparseCutoff="1.0000000000000000"/>
      <sparseX i="892" alpha="-1241.9300982253540" sparseCutoff="1.0000000000000000"/>
      <sparseX i="893" alpha="519.84486474453183" sparseCutoff="1.0000000000000000"/>
      <sparseX i="894" alpha="2236.8241963742553" sparseCutoff="1.0000000000000000"/>
      <sparseX i="895" alpha="-127.89036738843566" sparseCutoff="1.0000000000000000"/>
      <sparseX i="896" alpha="-421.31850670770217" sparseCutoff="1.0000000000000000"/>
      <sparseX i="897" alpha="-176.68277622165294" sparseCutoff="1.0000000000000000"/>
      <sparseX i="898" alpha="1980.3884893814231" sparseCutoff="1.0000000000000000"/>
      <sparseX i="899" alpha="-3711.3283152368681" sparseCutoff="1.0000000000000000"/>
      <sparseX i="900" alpha="-1200.3265501937253" sparseCutoff="1.0000000000000000"/>
      <sparseX i="901" alpha="783.30711912064976" sparseCutoff="1.0000000000000000"/>
      <sparseX i="902" alpha="170.06483190199384" sparseCutoff="1.0000000000000000"/>
      <sparseX i="903" alpha="46.216803189145153" sparseCutoff="1.0000000000000000"/>
      <sparseX i="904" alpha="888.93035988816428" sparseCutoff="1.0000000000000000"/>
      <sparseX i="905" alpha="-1367.5202456899303" sparseCutoff="1.0000000000000000"/>
      <sparseX i="906" alpha="1511.9556076689755" sparseCutoff="1.0000000000000000"/>
      <sparseX i="907" alpha="881.10360351609575" sparseCutoff="1.0000000000000000"/>
      <sparseX i="908" alpha="2219.0647633614744" sparseCutoff="1.0000000000000000"/>
      <sparseX i="909" alpha="-475.01790733329386" sparseCutoff="1.0000000000000000"/>
      <sparseX i="910" alpha="1928.0493798804134" sparseCutoff="1.0000000000000000"/>
      <sparseX i="911" alpha="-357.95269723387293" sparseCutoff="1.0000000000000000"/>
      <sparseX i="912" alpha="587.76226476256966" sparseCutoff="1.0000000000000000"/>
      <sparseX i="913" alpha="346.81077659871670" sparseCutoff="1.0000000000000000"/>
      <sparseX i="914" alpha="3684.7056628490259" sparseCutoff="1.0000000000000000"/>
      <sparseX i="915" alpha="-51.897718783513106" sparseCutoff="1.0000000000000000"/>
      <sparseX i="916" alpha="-198.84747615491645" sparseCutoff="1.0000000000000000"/>
      <sparseX i="917" alpha="-192.88107268301943" sparseCutoff="1.0000000000000000"/>
      <sparseX i="918" alpha="-1208.3091953182259" sparseCutoff="1.0000000000000000"/>
      <sparseX i="919" alpha="1609.1937349193154" sparseCutoff="1.0000000000000000"/>
      <sparseX i="920" alpha="-382.61529329891272" sparseCutoff="1.0000000000000000"/>
      <sparseX i="921" alpha="242.63701069532152" sparseCutoff="1.0000000000000000"/>
      <sparseX i="922" alpha="-87.965061405218279" sparseCutoff="1.0000000000000000"/>
      <sparseX i="923" alpha="127.61680110347473" sparseCutoff="1.0000000000000000"/>
      <sparseX i="924" alpha="846.90950200607074" sparseCutoff="1.0000000000000000"/>
      <sparseX i="925" alpha="-889.61863986680680" sparseCutoff="1.0000000000000000"/>
      <sparseX i="926" alpha="-666.06789364715144" sparseCutoff="1.0000000000000000"/>
      <sparseX i="927" alpha="-860.87455918253147" sparseCutoff="1.0000000000000000"/>
      <sparseX i="928" alpha="-1531.9851090033305" sparseCutoff="1.0000000000000000"/>
      <sparseX i="929" alpha="-1311.3800316090119" sparseCutoff="1.0000000000000000"/>
      <sparseX i="930" alpha="78.419377163806189" sparseCutoff="1.0000000000000000"/>
      <sparseX i="931" alpha="-365.60422665852735" sparseCutoff="1.0000000000000000"/>
      <sparseX i="932" alpha="-1960.7812143158899" sparseCutoff="1.0000000000000000"/>
      <sparseX i="933" alpha="435.83529845206317" sparseCutoff="1.0000000000000000"/>
      <sparseX i="934" alpha="-2918.8833054916654" sparseCutoff="1.0000000000000000"/>
      <sparseX i="935" alpha="3090.2919363486185" sparseCutoff="1.0000000000000000"/>
      <sparseX i="936" alpha="-632.73700745353335" sparseCutoff="1.0000000000000000"/>
      <sparseX i="937" alpha="-706.57741181517167" sparseCutoff="1.0000000000000000"/>
      <sparseX i="938" alpha="9.6752613130989804" sparseCutoff="1.0000000000000000"/>
      <sparseX i="939" alpha="-318.80566780504978" sparseCutoff="1.0000000000000000"/>
      <sparseX i="940" alpha="2551.3131413244737" sparseCutoff="1.0000000000000000"/>
      <sparseX i="941" alpha="1580.9376684501726" sparseCutoff="1.0000000000000000"/>
      <sparseX i="942" alpha="157.95884442421658" sparseCutoff="1.0000000000000000"/>
      <sparseX i="943" alpha="-138.29845824627262" sparseCutoff="1.0000000000000000"/>
      <sparseX i="944" alpha="137.54356335104589" sparseCutoff="1.0000000000000000"/>
      <sparseX i="945" alpha="806.66303378799580" sparseCutoff="1.0000000000000000"/>
      <sparseX i="946" alpha="-556.79553395882806" sparseCutoff="1.0000000000000000"/>
      <sparseX i="947" alpha="779.78787314410079" sparseCutoff="1.0000000000000000"/>
      <sparseX i="948" alpha="711.36891139658962" sparseCutoff="1.0000000000000000"/>
      <sparseX i="949" alpha="1169.0107174482594" sparseCutoff="1.0000000000000000"/>
      <sparseX i="950" alpha="117.30837248906710" sparseCutoff="1.0000000000000000"/>
      <sparseX i="951" alpha="-2337.6614450874622" sparseCutoff="1.0000000000000000"/>
      <sparseX i="952" alpha="-1263.1310730772277" sparseCutoff="1.0000000000000000"/>
      <sparseX i="953" alpha="-1131.6203799082978" sparseCutoff="1.0000000000000000"/>
      <sparseX i="954" alpha="1461.6687624235062" sparseCutoff="1.0000000000000000"/>
      <sparseX i="955" alpha="495.20216639100062" sparseCutoff="1.0000000000000000"/>
      <sparseX i="956" alpha="-2824.9372542886185" sparseCutoff="1.0000000000000000"/>
      <sparseX i="957" alpha="337.68116766561576" sparseCutoff="1.0000000000000000"/>
      <sparseX i="958" alpha="-57.730318184287341" sparseCutoff="1.0000000000000000"/>
      <sparseX i="959" alpha="-1419.6733264174682" sparseCutoff="1.0000000000000000"/>
      <sparseX i="960" alpha="659.19817746341437" sparseCutoff="1.0000000000000000"/>
      <sparseX i="961" alpha="-784.73039488983011" sparseCutoff="1.0000000000000000"/>
      <sparseX i="962" alpha="20.930603410955246" sparseCutoff="1.0000000000000000"/>
      <sparseX i="963" alpha="-668.05188658350437" sparseCutoff="1.0000000000000000"/>
      <sparseX i="964" alpha="-1103.5770741322681" sparseCutoff="1.0000000000000000"/>
      <sparseX i="965" alpha="-1260.9937885353070" sparseCutoff="1.0000000000000000"/>
      <sparseX i="966" alpha="-508.69268276004738" sparseCutoff="1.0000000000000000"/>
      <sparseX i="967" alpha="821.01398709654518" sparseCutoff="1.0000000000000000"/>
      <sparseX i="968" alpha="134.26839081929154" sparseCutoff="1.0000000000000000"/>
      <sparseX i="969" alpha="766.02767774267500" sparseCutoff="1.0000000000000000"/>
      <sparseX i="970" alpha="1400.1865243809400" sparseCutoff="1.0000000000000000"/>
      <sparseX i="971" alpha="-507.28447793100639" sparseCutoff="1.0000000000000000"/>
      <sparseX i="972" alpha="-95.725044348629666" sparseCutoff="1.0000000000000000"/>
      <sparseX i="973" alpha="-2331.6941001832288" sparseCutoff="1.0000000000000000"/>
      <sparseX i="974" alpha="-2548.4130724482129" sparseCutoff="1.0000000000000000"/>
      <sparseX i="975" alpha="238.27567966275402" sparseCutoff="1.0000000000000000"/>
      <sparseX i="976" alpha="1974.3225057100487" sparseCutoff="1.0000000000000000"/>
      <sparseX i="977" alpha="-2429.3519241961553" sparseCutoff="1.0000000000000000"/>
      <sparseX i="978" alpha="-1224.4025095121149" sparseCutoff="1.0000000000000000"/>
      <sparseX i="979" alpha="2004.7543188805851" sparseCutoff="1.0000000000000000"/>
      <sparseX i="980" alpha="87.833135513557295" sparseCutoff="1.0000000000000000"/>
      <sparseX i="981" alpha="-886.21326202701482" sparseCutoff="1.0000000000000000"/>
      <sparseX i="982" alpha="39.832643649764179" sparseCutoff="1.0000000000000000"/>
      <sparseX i="983" alpha="939.25303638434445" sparseCutoff="1.0000000000000000"/>
      <sparseX i="984" alpha="-384.59228014406966" sparseCutoff="1.0000000000000000"/>
      <sparseX i="985" alpha="-421.01555004414490" sparseCutoff="1.0000000000000000"/>
      <sparseX i="986" alpha="3019.8539867842283" sparseCutoff="1.0000000000000000"/>
      <sparseX i="987" alpha="510.57594882723430" sparseCutoff="1.0000000000000000"/>
      <sparseX i="988" alpha="-524.53018565577906" sparseCutoff="1.0000000000000000"/>
      <sparseX i="989" alpha="-185.08050296325254" sparseCutoff="1.0000000000000000"/>
      <sparseX i="990" alpha="-356.99859779140979" sparseCutoff="1.0000000000000000"/>
      <sparseX i="991" alpha="1534.6475156227550" sparseCutoff="1.0000000000000000"/>
      <sparseX i="992" alpha="-169.04486932544694" sparseCutoff="1.0000000000000000"/>
      <sparseX i="993" alpha="1678.3299243830161" sparseCutoff="1.0000000000000000"/>
      <sparseX i="994" alpha="333.81060194304598" sparseCutoff="1.0000000000000000"/>
